#include <math.h>
#include <string.h>
#include "model2c.h"

model2c::model2c()
{

}

model2c::~model2c()
{

}

double model2c::sigmoid(double x) {
	if (x < 0.0) {
		double z = exp(x);
		return z / (1.0 + z);
	}
	return 1.0 / (1.0 + exp(-x));
}

double model2c::score(double * input) {
	double var0;
	if (input[2] > 6.500000000000001) {
		if (input[2] > 7.500000000000001) {
			if (input[2] > 8.500000000000002) {
				if (input[2] > 9.500000000000002) {
					if (input[2] > 10.500000000000002) {
						if (input[2] > 12.500000000000002) {
							if (input[2] > 13.500000000000002) {
								var0 = -0.2606406198731083;
							}
							else {
								var0 = -0.2614357356032828;
							}
						}
						else {
							if (input[2] > 11.500000000000002) {
								var0 = -0.26358018745609124;
							}
							else {
								var0 = -0.2643553629498959;
							}
						}
					}
					else {
						var0 = -0.26949852057756624;
					}
				}
				else {
					var0 = -0.2756894570639128;
				}
			}
			else {
				var0 = -0.29368551694692197;
			}
		}
		else {
			var0 = -0.3274625457597261;
		}
	}
	else {
		if (input[2] > 4.500000000000001) {
			if (input[2] > 5.500000000000001) {
				var0 = -0.406441327489428;
			}
			else {
				var0 = -0.46273459185933113;
			}
		}
		else {
			if (input[2] > 2.5000000000000004) {
				if (input[2] > 3.5000000000000004) {
					var0 = -0.5032004472521648;
				}
				else {
					var0 = -0.5018309319578038;
				}
			}
			else {
				var0 = -0.5105738069109851;
			}
		}
	}
	double var1;
	if (input[2] > 6.500000000000001) {
		if (input[2] > 7.500000000000001) {
			if (input[2] > 8.500000000000002) {
				if (input[2] > 9.500000000000002) {
					if (input[2] > 10.500000000000002) {
						if (input[2] > 12.500000000000002) {
							if (input[2] > 13.500000000000002) {
								var1 = 0.1378656747726887;
							}
							else {
								var1 = 0.1371520602544556;
							}
						}
						else {
							if (input[2] > 11.500000000000002) {
								var1 = 0.13522690688586939;
							}
							else {
								var1 = 0.13453079293702822;
							}
						}
					}
					else {
						var1 = 0.12990945023526856;
					}
				}
				else {
					var1 = 0.12434004108952328;
				}
			}
			else {
				var1 = 0.10810676188667076;
			}
		}
		else {
			var1 = 0.0774378372506421;
		}
	}
	else {
		if (input[2] > 4.500000000000001) {
			if (input[2] > 5.500000000000001) {
				var1 = 0.004425648859287163;
			}
			else {
				var1 = -0.0490434585910921;
			}
		}
		else {
			if (input[2] > 2.5000000000000004) {
				if (input[2] > 3.5000000000000004) {
					var1 = -0.08838739645573865;
				}
				else {
					var1 = -0.08704210673136815;
				}
			}
			else {
				var1 = -0.09564765614146634;
			}
		}
	}
	double var2;
	if (input[2] > 6.500000000000001) {
		if (input[2] > 7.500000000000001) {
			if (input[2] > 8.500000000000002) {
				if (input[2] > 9.500000000000002) {
					if (input[2] > 10.500000000000002) {
						if (input[2] > 12.500000000000002) {
							if (input[2] > 13.500000000000002) {
								var2 = 0.1278378022723806;
							}
							else {
								var2 = 0.12717484112132463;
							}
						}
						else {
							if (input[2] > 11.500000000000002) {
								var2 = 0.12538690232774571;
							}
							else {
								var2 = 0.12474062413808562;
							}
						}
					}
					else {
						var2 = 0.12045277641899145;
					}
				}
				else {
					var2 = 0.11529105286997457;
				}
			}
			else {
				var2 = 0.10027451354719562;
			}
		}
		else {
			var2 = 0.07196121485317976;
		}
	}
	else {
		if (input[2] > 4.500000000000001) {
			if (input[2] > 5.500000000000001) {
				var2 = 0.004156322624655464;
			}
			else {
				var2 = -0.0466612818919355;
			}
		}
		else {
			if (input[2] > 2.5000000000000004) {
				if (input[2] > 3.5000000000000004) {
					var2 = -0.08513032002676241;
				}
				else {
					var2 = -0.08379647931042825;
				}
			}
			else {
				var2 = -0.09235352768468577;
			}
		}
	}
	double var3;
	if (input[2] > 6.500000000000001) {
		if (input[2] > 8.500000000000002) {
			if (input[2] > 9.500000000000002) {
				if (input[2] > 10.500000000000002) {
					if (input[2] > 12.500000000000002) {
						if (input[2] > 13.500000000000002) {
							var3 = 0.11969698969206422;
						}
						else {
							var3 = 0.11906434138119787;
						}
					}
					else {
						if (input[2] > 11.500000000000002) {
							var3 = 0.11735948537773655;
						}
						else {
							var3 = 0.11674372346548739;
						}
					}
				}
				else {
					var3 = 0.11266460883954468;
				}
			}
			else {
				var3 = 0.10776794836118028;
			}
		}
		else {
			if (input[2] > 7.500000000000001) {
				var3 = 0.09359844378082309;
			}
			else {
				var3 = 0.06710921540426726;
			}
		}
	}
	else {
		if (input[2] > 4.500000000000001) {
			if (input[2] > 5.500000000000001) {
				var3 = 0.0039036383601428358;
			}
			else {
				var3 = -0.044416713294903265;
			}
		}
		else {
			if (input[2] > 2.5000000000000004) {
				if (input[2] > 3.5000000000000004) {
					var3 = -0.08220665953959287;
				}
				else {
					var3 = -0.08087381631375701;
				}
			}
			else {
				var3 = -0.08945572184300135;
			}
		}
	}
	double var4;
	if (input[2] > 6.500000000000001) {
		if (input[2] > 8.500000000000002) {
			if (input[2] > 9.500000000000002) {
				if (input[2] > 10.500000000000002) {
					if (input[2] > 12.500000000000002) {
						if (input[2] > 13.500000000000002) {
							var4 = 0.11296252891079628;
						}
						else {
							var4 = 0.11234599652248844;
						}
					}
					else {
						if (input[2] > 11.500000000000002) {
							var4 = 0.11068645003642945;
						}
						else {
							var4 = 0.11008773090852801;
						}
					}
				}
				else {
					var4 = 0.10613029883210619;
				}
			}
			else {
				var4 = 0.10139917401711158;
			}
		}
		else {
			if (input[2] > 7.500000000000001) {
				var4 = 0.08781708191364045;
			}
			else {
				var4 = 0.06276761368366958;
			}
		}
	}
	else {
		if (input[2] > 4.500000000000001) {
			if (input[2] > 5.500000000000001) {
				var4 = 0.0036665338381104183;
			}
			else {
				var4 = -0.04229540191153337;
			}
		}
		else {
			if (input[2] > 2.5000000000000004) {
				if (input[2] > 3.5000000000000004) {
					var4 = -0.07956195569990034;
				}
				else {
					var4 = -0.07822143536540307;
				}
			}
			else {
				var4 = -0.08689014454153449;
			}
		}
	}
	double var5;
	if (input[2] > 6.500000000000001) {
		if (input[2] > 8.500000000000002) {
			if (input[2] > 9.500000000000002) {
				if (input[2] > 10.500000000000002) {
					if (input[2] > 12.500000000000002) {
						if (input[2] > 13.500000000000002) {
							var5 = 0.10730529345221851;
						}
						else {
							var5 = 0.1066944407266834;
						}
					}
					else {
						if (input[2] > 11.500000000000002) {
							var5 = 0.10505255909991237;
						}
						else {
							var5 = 0.10446101704008168;
						}
					}
				}
				else {
					var5 = 0.10056183678528353;
				}
			}
			else {
				var5 = 0.09592404201220318;
			}
		}
		else {
			if (input[2] > 7.500000000000001) {
				var5 = 0.08274176078179027;
			}
			else {
				var5 = 0.05884918315136031;
			}
		}
	}
	else {
		if (input[2] > 4.500000000000001) {
			if (input[2] > 5.500000000000001) {
				var5 = 0.0034440158592049263;
			}
			else {
				var5 = -0.04028537768638635;
			}
		}
		else {
			if (input[2] > 2.5000000000000004) {
				if (input[2] > 3.5000000000000004) {
					var5 = -0.07715231014592981;
				}
				else {
					var5 = -0.07579681973517358;
				}
			}
			else {
				var5 = -0.08460577347224571;
			}
		}
	}
	double var6;
	if (input[2] > 6.500000000000001) {
		if (input[2] > 8.500000000000002) {
			if (input[2] > 9.500000000000002) {
				if (input[2] > 10.500000000000002) {
					if (input[2] > 12.500000000000002) {
						if (input[2] > 13.500000000000002) {
							var6 = 0.10249205257837515;
						}
						else {
							var6 = 0.1018788916056144;
						}
					}
					else {
						if (input[2] > 11.500000000000002) {
							var6 = 0.10023347001501616;
						}
						else {
							var6 = 0.09964160491260399;
						}
					}
				}
				else {
					var6 = 0.09575261620706903;
				}
			}
			else {
				var6 = 0.09115405607046223;
			}
		}
		else {
			if (input[2] > 7.500000000000001) {
				var6 = 0.07823286413539886;
			}
			else {
				var6 = 0.05528622205374528;
			}
		}
	}
	else {
		if (input[2] > 4.500000000000001) {
			if (input[2] > 5.500000000000001) {
				var6 = 0.0032351683113812633;
			}
			else {
				var6 = -0.03837657016001536;
			}
		}
		else {
			if (input[2] > 2.5000000000000004) {
				if (input[2] > 3.5000000000000004) {
					var6 = -0.07494195793925909;
				}
				else {
					var6 = -0.07356521954003438;
				}
			}
			else {
				var6 = -0.08256144464596925;
			}
		}
	}
	double var7;
	if (input[2] > 6.500000000000001) {
		if (input[2] > 8.500000000000002) {
			if (input[2] > 9.500000000000002) {
				if (input[2] > 10.500000000000002) {
					if (input[2] > 12.500000000000002) {
						if (input[2] > 13.500000000000002) {
							var7 = 0.09835269762988716;
						}
						else {
							var7 = 0.0977308146717379;
						}
					}
					else {
						if (input[2] > 11.500000000000002) {
							var7 = 0.09606497385937958;
						}
						else {
							var7 = 0.0954668335155284;
						}
					}
				}
				else {
					var7 = 0.09155031793564761;
				}
			}
			else {
				var7 = 0.08694930383490959;
			}
		}
		else {
			if (input[2] > 7.500000000000001) {
				var7 = 0.07418486396835945;
			}
			else {
				var7 = 0.052025427815837445;
			}
		}
	}
	else {
		if (input[2] > 4.500000000000001) {
			if (input[2] > 5.500000000000001) {
				var7 = 0.0030391273583127883;
			}
			else {
				var7 = -0.03656048382398221;
			}
		}
		else {
			if (input[2] > 2.5000000000000004) {
				if (input[2] > 3.5000000000000004) {
					var7 = -0.07290135278261994;
				}
				else {
					var7 = -0.07149797425393033;
				}
			}
			else {
				var7 = -0.0807235869291691;
			}
		}
	}
	double var8;
	if (input[2] > 6.500000000000001) {
		if (input[2] > 8.500000000000002) {
			if (input[2] > 9.500000000000002) {
				if (input[2] > 10.500000000000002) {
					if (input[2] > 12.500000000000002) {
						if (input[2] > 13.500000000000002) {
							var8 = 0.09476017046311391;
						}
						else {
							var8 = 0.09412420925625996;
						}
					}
					else {
						if (input[2] > 11.500000000000002) {
							var8 = 0.0924239876972089;
						}
						else {
							var8 = 0.09181467371949632;
						}
					}
				}
				else {
					var8 = 0.08784010251316011;
				}
			}
			else {
				var8 = 0.08320369993444057;
			}
		}
		else {
			if (input[2] > 7.500000000000001) {
				var8 = 0.07051654849897938;
			}
			else {
				var8 = 0.0490243307507584;
			}
		}
	}
	else {
		if (input[2] > 4.500000000000001) {
			if (input[2] > 5.500000000000001) {
				var8 = 0.002855085875419825;
			}
			else {
				var8 = -0.034829931092804335;
			}
		}
		else {
			if (input[2] > 2.5000000000000004) {
				if (input[2] > 3.5000000000000004) {
					var8 = -0.07100595018777585;
				}
				else {
					var8 = -0.0695711896733388;
				}
			}
			else {
				var8 = -0.07906448175799712;
			}
		}
	}
	double var9;
	if (input[2] > 5.500000000000001) {
		if (input[2] > 7.500000000000001) {
			if (input[2] > 8.500000000000002) {
				if (input[2] > 9.500000000000002) {
					if (input[2] > 10.500000000000002) {
						if (input[2] > 12.500000000000002) {
							if (input[2] > 13.500000000000002) {
								var9 = 0.09161753702380236;
							}
							else {
								var9 = 0.09096288035163622;
							}
						}
						else {
							if (input[2] > 11.500000000000002) {
								var9 = 0.08921629454931898;
							}
							else {
								var9 = 0.08859165602451356;
							}
						}
					}
					else {
						var9 = 0.08453360690360076;
					}
				}
				else {
					var9 = 0.07983527712289172;
				}
			}
			else {
				var9 = 0.06716447986043292;
			}
		}
		else {
			if (input[2] > 6.500000000000001) {
				var9 = 0.046248666296145144;
			}
			else {
				var9 = 0.0026823035764193394;
			}
		}
	}
	else {
		if (input[2] > 4.500000000000001) {
			var9 = -0.03317875850736443;
		}
		else {
			if (input[2] > 2.5000000000000004) {
				if (input[2] > 3.5000000000000004) {
					var9 = -0.06923509696122505;
				}
				else {
					var9 = -0.06776482055833666;
				}
			}
			else {
				var9 = -0.0775611139767068;
			}
		}
	}
	double var10;
	if (input[2] > 5.500000000000001) {
		if (input[2] > 7.500000000000001) {
			if (input[2] > 8.500000000000002) {
				if (input[2] > 9.500000000000002) {
					if (input[2] > 10.500000000000002) {
						if (input[2] > 12.500000000000002) {
							if (input[2] > 13.500000000000002) {
								var10 = 0.08884954951708232;
							}
							else {
								var10 = 0.08817205031079736;
							}
						}
						else {
							if (input[2] > 11.500000000000002) {
								var10 = 0.08636854489891327;
							}
							else {
								var10 = 0.0857249524856411;
							}
						}
					}
					else {
						var10 = 0.08156168152087874;
					}
				}
				else {
					var10 = 0.07677965356902751;
				}
			}
			else {
				var10 = 0.0640784149772929;
			}
		}
		else {
			if (input[2] > 6.500000000000001) {
				var10 = 0.0436705630857902;
			}
			else {
				var10 = 0.002520063771131037;
			}
		}
	}
	else {
		if (input[2] > 4.500000000000001) {
			var10 = -0.03160169471468806;
		}
		else {
			if (input[2] > 2.5000000000000004) {
				if (input[2] > 3.5000000000000004) {
					var10 = -0.06757132042068804;
				}
				else {
					var10 = -0.06606186648950813;
				}
			}
			else {
				var10 = -0.07619414128783132;
			}
		}
	}
	double var11;
	if (input[2] > 5.500000000000001) {
		if (input[2] > 7.500000000000001) {
			if (input[2] > 8.500000000000002) {
				if (input[2] > 9.500000000000002) {
					if (input[2] > 10.500000000000002) {
						if (input[2] > 12.500000000000002) {
							if (input[2] > 13.500000000000002) {
								var11 = 0.08639685731614187;
							}
							else {
								var11 = 0.08569270438184678;
							}
						}
						else {
							if (input[2] > 11.500000000000002) {
								var11 = 0.08382267363712126;
							}
							else {
								var11 = 0.08315687734223165;
							}
						}
					}
					else {
						var11 = 0.07886938755895964;
					}
				}
				else {
					var11 = 0.07398554139105556;
				}
			}
			else {
				var11 = 0.06121814658188174;
			}
		}
		else {
			if (input[2] > 6.500000000000001) {
				var11 = 0.041267121360012884;
			}
			else {
				var11 = 0.0023677240653325136;
			}
		}
	}
	else {
		if (input[2] > 4.500000000000001) {
			var11 = -0.030094202489643954;
		}
		else {
			if (input[2] > 2.5000000000000004) {
				if (input[2] > 3.5000000000000004) {
					var11 = -0.0659997250525927;
				}
				else {
					var11 = -0.06444786422482811;
				}
			}
			else {
				var11 = -0.07494720149831671;
			}
		}
	}
	double var12;
	if (input[2] > 5.500000000000001) {
		if (input[2] > 7.500000000000001) {
			if (input[2] > 8.500000000000002) {
				if (input[2] > 10.500000000000002) {
					if (input[2] > 12.500000000000002) {
						if (input[2] > 13.500000000000002) {
							var12 = 0.08421199260001555;
						}
						else {
							var12 = 0.08347761099615407;
						}
					}
					else {
						if (input[2] > 11.500000000000002) {
							var12 = 0.08153210233865393;
						}
						else {
							var12 = 0.0808411219148202;
						}
					}
				}
				else {
					if (input[2] > 9.500000000000002) {
						var12 = 0.07641247152950646;
					}
					else {
						var12 = 0.07141160980951794;
					}
				}
			}
			else {
				var12 = 0.058551159414707635;
			}
		}
		else {
			if (input[2] > 6.500000000000001) {
				var12 = 0.03901934441716158;
			}
			else {
				var12 = 0.002224663746984725;
			}
		}
	}
	else {
		if (input[2] > 4.500000000000001) {
			var12 = -0.028652335106263475;
		}
		else {
			if (input[2] > 2.5000000000000004) {
				if (input[2] > 3.5000000000000004) {
					var12 = -0.06450752933355318;
				}
				else {
					var12 = -0.06291040093568767;
				}
			}
			else {
				var12 = -0.07380636359417046;
			}
		}
	}
	double var13;
	if (input[2] > 5.500000000000001) {
		if (input[2] > 7.500000000000001) {
			if (input[2] > 8.500000000000002) {
				if (input[2] > 10.500000000000002) {
					if (input[2] > 12.500000000000002) {
						if (input[2] > 13.500000000000002) {
							var13 = 0.08225654785612208;
						}
						else {
							var13 = 0.08148846808059154;
						}
					}
					else {
						if (input[2] > 11.500000000000002) {
							var13 = 0.0794589945264653;
						}
						else {
							var13 = 0.07874003259075459;
						}
					}
				}
				else {
					if (input[2] > 9.500000000000002) {
						var13 = 0.07415486329969993;
					}
					else {
						var13 = 0.06902411209779787;
					}
				}
			}
			else {
				var13 = 0.056050987180510416;
			}
		}
		else {
			if (input[2] > 6.500000000000001) {
				var13 = 0.03691139889266197;
			}
			else {
				var13 = 0.0020903094301989774;
			}
		}
	}
	else {
		if (input[2] > 4.500000000000001) {
			var13 = -0.027272624452550225;
		}
		else {
			if (input[2] > 2.5000000000000004) {
				if (input[2] > 3.5000000000000004) {
					var13 = -0.06308369766987319;
				}
				else {
					var13 = -0.0614388125063534;
				}
			}
			else {
				var13 = -0.07275967804649457;
			}
		}
	}
	double var14;
	if (input[2] > 5.500000000000001) {
		if (input[2] > 7.500000000000001) {
			if (input[2] > 8.500000000000002) {
				if (input[2] > 10.500000000000002) {
					if (input[2] > 12.500000000000002) {
						if (input[2] > 13.500000000000002) {
							var14 = 0.0804990750564162;
						}
						else {
							var14 = 0.0796939044523889;
						}
					}
					else {
						if (input[2] > 11.500000000000002) {
							var14 = 0.07757225620158825;
						}
						else {
							var14 = 0.0768226693305147;
						}
					}
				}
				else {
					if (input[2] > 9.500000000000002) {
						var14 = 0.07206685613186704;
					}
					else {
						var14 = 0.06679529200259468;
					}
				}
			}
			else {
				var14 = 0.053695902048379686;
			}
		}
		else {
			if (input[2] > 6.500000000000001) {
				var14 = 0.0349299202728072;
			}
			else {
				var14 = 0.001964120379609529;
			}
		}
	}
	else {
		if (input[2] > 4.500000000000001) {
			var14 = -0.02595203907561629;
		}
		else {
			if (input[2] > 2.5000000000000004) {
				if (input[2] > 3.5000000000000004) {
					var14 = -0.06171866004572194;
				}
				else {
					var14 = -0.06002385629770832;
				}
			}
			else {
				var14 = -0.07179683541891524;
			}
		}
	}
	double var15;
	if (input[2] > 5.500000000000001) {
		if (input[2] > 7.500000000000001) {
			if (input[2] > 8.500000000000002) {
				if (input[2] > 10.500000000000002) {
					if (input[2] > 12.500000000000002) {
						if (input[2] > 13.500000000000002) {
							var15 = 0.078913586821069;
						}
						else {
							var15 = 0.07806795450916196;
						}
					}
					else {
						if (input[2] > 11.500000000000002) {
							var15 = 0.07584608327220178;
						}
						else {
							var15 = 0.0750632972822056;
						}
					}
				}
				else {
					if (input[2] > 9.500000000000002) {
						var15 = 0.07012374471988034;
					}
					else {
						var15 = 0.0647021405899092;
					}
				}
			}
			else {
				var15 = 0.05146798467123725;
			}
		}
		else {
			if (input[2] > 6.500000000000001) {
				var15 = 0.033063596489204004;
			}
			else {
				var15 = 0.0018455979907985019;
			}
		}
	}
	else {
		if (input[2] > 4.500000000000001) {
			var15 = -0.024687853111739287;
		}
		else {
			if (input[2] > 2.5000000000000004) {
				if (input[2] > 3.5000000000000004) {
					var15 = -0.06040409302064915;
				}
				else {
					var15 = -0.05865750376072354;
				}
			}
			else {
				var15 = -0.07090887513902351;
			}
		}
	}
	double var16;
	if (input[2] > 5.500000000000001) {
		if (input[2] > 7.500000000000001) {
			if (input[2] > 8.500000000000002) {
				if (input[2] > 10.500000000000002) {
					if (input[2] > 12.500000000000002) {
						if (input[2] > 13.500000000000002) {
							var16 = 0.07747842013922067;
						}
						else {
							var16 = 0.07658890086920203;
						}
					}
					else {
						if (input[2] > 11.500000000000002) {
							var16 = 0.07425882697295205;
						}
						else {
							var16 = 0.07344036551984266;
						}
					}
				}
				else {
					if (input[2] > 9.500000000000002) {
						var16 = 0.06830477133796178;
					}
					else {
						var16 = 0.06272538181619203;
					}
				}
			}
			else {
				var16 = 0.049352371650720366;
			}
		}
		else {
			if (input[2] > 6.500000000000001) {
				var16 = 0.03130276649004823;
			}
			else {
				var16 = 0.0017342715155656116;
			}
		}
	}
	else {
		if (input[2] > 4.500000000000001) {
			var16 = -0.023477629909350824;
		}
		else {
			if (input[2] > 2.5000000000000004) {
				if (input[2] > 3.5000000000000004) {
					var16 = -0.05913271786056572;
				}
				else {
					var16 = -0.05733280930959518;
				}
			}
			else {
				var16 = -0.07008799145163963;
			}
		}
	}
	double var17;
	if (input[2] > 5.500000000000001) {
		if (input[2] > 7.500000000000001) {
			if (input[2] > 8.500000000000002) {
				if (input[2] > 10.500000000000002) {
					if (input[2] > 12.500000000000002) {
						if (input[2] > 13.500000000000002) {
							var17 = 0.076175347886835;
						}
						else {
							var17 = 0.07523848793957001;
						}
					}
					else {
						if (input[2] > 11.500000000000002) {
							var17 = 0.07279221280000417;
						}
						else {
							var17 = 0.07193562420504192;
						}
					}
				}
				else {
					if (input[2] > 9.500000000000002) {
						var17 = 0.06659243043343359;
					}
					else {
						var17 = 0.06084883546391996;
					}
				}
			}
			else {
				var17 = 0.04733672810442735;
			}
		}
		else {
			if (input[2] > 6.500000000000001) {
				var17 = 0.02963911197668131;
			}
			else {
				var17 = 0.0016296901122181745;
			}
		}
	}
	else {
		if (input[2] > 4.500000000000001) {
			var17 = -0.0223191526599212;
		}
		else {
			if (input[2] > 2.5000000000000004) {
				if (input[2] > 3.5000000000000004) {
					var17 = -0.05789816828767133;
				}
				else {
					var17 = -0.05604369977784789;
				}
			}
			else {
				var17 = -0.06932732402097883;
			}
		}
	}
	double var18;
	if (input[2] > 5.500000000000001) {
		if (input[2] > 7.500000000000001) {
			if (input[2] > 8.500000000000002) {
				if (input[2] > 10.500000000000002) {
					if (input[2] > 12.500000000000002) {
						if (input[2] > 13.500000000000002) {
							var18 = 0.07498894560953309;
						}
						else {
							var18 = 0.07400118147371705;
						}
					}
					else {
						if (input[2] > 11.500000000000002) {
							var18 = 0.0714306647392309;
						}
						else {
							var18 = 0.07053352155514876;
						}
					}
				}
				else {
					if (input[2] > 9.500000000000002) {
						var18 = 0.06497177987034455;
					}
					else {
						var18 = 0.0590588334916899;
					}
				}
			}
			else {
				var18 = 0.045410747218827555;
			}
		}
		else {
			if (input[2] > 6.500000000000001) {
				var18 = 0.02806541510135414;
			}
			else {
				var18 = 0.001531455218753403;
			}
		}
	}
	else {
		if (input[2] > 4.500000000000001) {
			var18 = -0.021210408959379066;
		}
		else {
			if (input[2] > 2.5000000000000004) {
				if (input[2] > 3.5000000000000004) {
					var18 = -0.05669484914354819;
				}
				else {
					var18 = -0.05478489672105442;
				}
			}
			else {
				var18 = -0.06862084392406265;
			}
		}
	}
	double var19;
	if (input[2] > 5.500000000000001) {
		if (input[2] > 7.500000000000001) {
			if (input[2] > 8.500000000000002) {
				if (input[2] > 10.500000000000002) {
					if (input[2] > 12.500000000000002) {
						if (input[2] > 13.500000000000002) {
							var19 = 0.07390604969292;
						}
						else {
							var19 = 0.07286371417844756;
						}
					}
					else {
						if (input[2] > 11.500000000000002) {
							var19 = 0.07016079242421873;
						}
						else {
							var19 = 0.06922068214978885;
						}
					}
				}
				else {
					if (input[2] > 9.500000000000002) {
						var19 = 0.06343004205180001;
					}
					else {
						var19 = 0.057343765175742537;
					}
				}
			}
			else {
				var19 = 0.043565827101039296;
			}
		}
		else {
			if (input[2] > 6.500000000000001) {
				var19 = 0.026575377209641485;
			}
			else {
				var19 = 0.0014391663338197064;
			}
		}
	}
	else {
		if (input[2] > 4.500000000000001) {
			var19 = -0.020149508715491343;
		}
		else {
			if (input[2] > 2.5000000000000004) {
				if (input[2] > 3.5000000000000004) {
					var19 = -0.05551786726189764;
				}
				else {
					var19 = -0.053551794835673475;
				}
			}
			else {
				var19 = -0.06796320090366526;
			}
		}
	}
	double var20;
	if (input[2] > 5.500000000000001) {
		if (input[2] > 7.500000000000001) {
			if (input[2] > 8.500000000000002) {
				if (input[2] > 10.500000000000002) {
					if (input[2] > 12.500000000000002) {
						if (input[2] > 13.500000000000002) {
							var20 = 0.07291537152324047;
						}
						else {
							var20 = 0.07181465911724798;
						}
					}
					else {
						if (input[2] > 11.500000000000002) {
							var20 = 0.06897101681537261;
						}
						else {
							var20 = 0.06798556306323524;
						}
					}
				}
				else {
					if (input[2] > 9.500000000000002) {
						var20 = 0.061956207299550425;
					}
					else {
						var20 = 0.05569377461793508;
					}
				}
			}
			else {
				var20 = 0.04179476469076114;
			}
		}
		else {
			if (input[2] > 6.500000000000001) {
				var20 = 0.025163455600260978;
			}
			else {
				var20 = 0.0013524584272092501;
			}
		}
	}
	else {
		if (input[2] > 4.500000000000001) {
			var20 = -0.019134699945980313;
		}
		else {
			if (input[2] > 2.5000000000000004) {
				if (input[2] > 3.5000000000000004) {
					var20 = -0.05436291708828848;
				}
				else {
					var20 = -0.05234042036875211;
				}
			}
			else {
				var20 = -0.06734962088799333;
			}
		}
	}
	double var21;
	if (input[2] > 5.500000000000001) {
		if (input[2] > 7.500000000000001) {
			if (input[2] > 8.500000000000002) {
				if (input[2] > 10.500000000000002) {
					if (input[2] > 12.500000000000002) {
						if (input[2] > 13.500000000000002) {
							var21 = 0.07200715749946769;
						}
						else {
							var21 = 0.070844121978206;
						}
					}
					else {
						if (input[2] > 11.500000000000002) {
							var21 = 0.06785128128665206;
						}
						else {
							var21 = 0.06681808501614897;
						}
					}
				}
				else {
					if (input[2] > 9.500000000000002) {
						var21 = 0.06054076386600408;
					}
					else {
						var21 = 0.05410047149658529;
					}
				}
			}
			else {
				var21 = 0.04009152717588744;
			}
		}
		else {
			if (input[2] > 6.500000000000001) {
				var21 = 0.023824752631958233;
			}
			else {
				var21 = 0.0012709975190181844;
			}
		}
	}
	else {
		if (input[2] > 4.500000000000001) {
			var21 = -0.018164337023487732;
		}
		else {
			if (input[2] > 2.5000000000000004) {
				if (input[2] > 3.5000000000000004) {
					var21 = -0.05322624588930121;
				}
				else {
					var21 = -0.051147333516477114;
				}
			}
			else {
				var21 = -0.06677586583776268;
			}
		}
	}
	double var22;
	if (input[2] > 5.500000000000001) {
		if (input[2] > 7.500000000000001) {
			if (input[2] > 8.500000000000002) {
				if (input[2] > 10.500000000000002) {
					if (input[2] > 12.500000000000002) {
						if (input[2] > 13.500000000000002) {
							var22 = 0.07117295014779378;
						}
						else {
							var22 = 0.06994346938485005;
						}
					}
					else {
						if (input[2] > 11.500000000000002) {
							var22 = 0.06679275381251097;
						}
						else {
							var22 = 0.06570942791793154;
						}
					}
				}
				else {
					if (input[2] > 9.500000000000002) {
						var22 = 0.0591754572598687;
					}
					else {
						var22 = 0.052556707432546305;
					}
				}
			}
			else {
				var22 = 0.038451068518389066;
			}
		}
		else {
			if (input[2] > 6.500000000000001) {
				var22 = 0.02255485949745377;
			}
			else {
				var22 = 0.001194467369144315;
			}
		}
	}
	else {
		if (input[2] > 4.500000000000001) {
			var22 = -0.017236844090857247;
		}
		else {
			if (input[2] > 2.5000000000000004) {
				if (input[2] > 3.5000000000000004) {
					var22 = -0.052104578709408045;
				}
				else {
					var22 = -0.04996957522296038;
				}
			}
			else {
				var22 = -0.06623812002980208;
			}
		}
	}
	double var23;
	if (input[2] > 5.500000000000001) {
		if (input[2] > 8.500000000000002) {
			if (input[2] > 10.500000000000002) {
				if (input[2] > 12.500000000000002) {
					if (input[2] > 13.500000000000002) {
						var23 = 0.07040537996990319;
					}
					else {
						var23 = 0.06910514979918592;
					}
				}
				else {
					if (input[2] > 11.500000000000002) {
						var23 = 0.06578766123042107;
					}
					else {
						var23 = 0.06465181734447625;
					}
				}
			}
			else {
				if (input[2] > 9.500000000000002) {
					var23 = 0.0578531059548903;
				}
				else {
					var23 = 0.051056399804818624;
				}
			}
		}
		else {
			if (input[2] > 6.500000000000001) {
				if (input[2] > 7.500000000000001) {
					var23 = 0.03686914570775347;
				}
				else {
					var23 = 0.021349845463876034;
				}
			}
			else {
				var23 = 0.0011225576110420678;
			}
		}
	}
	else {
		if (input[2] > 4.500000000000001) {
			var23 = -0.016350716529978614;
		}
		else {
			if (input[2] > 2.5000000000000004) {
				if (input[2] > 3.5000000000000004) {
					var23 = -0.050995061284299426;
				}
				else {
					var23 = -0.04880463181458521;
				}
			}
			else {
				var23 = -0.06573294695027439;
			}
		}
	}
	double var24;
	if (input[2] > 5.500000000000001) {
		if (input[2] > 8.500000000000002) {
			if (input[2] > 10.500000000000002) {
				if (input[2] > 12.500000000000002) {
					if (input[2] > 13.500000000000002) {
						var24 = 0.06969797356276008;
					}
					else {
						var24 = 0.06832247616957865;
					}
				}
				else {
					if (input[2] > 11.500000000000002) {
						var24 = 0.06482911235687693;
					}
					else {
						var24 = 0.06363837004386518;
					}
				}
			}
			else {
				if (input[2] > 9.500000000000002) {
					var24 = 0.05656744714753815;
				}
				else {
					var24 = 0.049594380757508646;
				}
			}
		}
		else {
			if (input[2] > 6.500000000000001) {
				if (input[2] > 7.500000000000001) {
					var24 = 0.03534221856202064;
				}
				else {
					var24 = 0.020206115854926307;
				}
			}
			else {
				var24 = 0.0010549921243369921;
			}
		}
	}
	else {
		if (input[2] > 4.500000000000001) {
			var24 = -0.015504504651693458;
		}
		else {
			if (input[2] > 2.5000000000000004) {
				if (input[2] > 3.5000000000000004) {
					var24 = -0.04989525525411527;
				}
				else {
					var24 = -0.047650396183832704;
				}
			}
			else {
				var24 = -0.06525724282213882;
			}
		}
	}
	double var25;
	if (input[2] > 5.500000000000001) {
		if (input[2] > 8.500000000000002) {
			if (input[2] > 10.500000000000002) {
				if (input[2] > 12.500000000000002) {
					if (input[2] > 13.500000000000002) {
						var25 = 0.06904506314598374;
					}
					else {
						var25 = 0.06758956426761087;
					}
				}
				else {
					if (input[2] > 11.500000000000002) {
						var25 = 0.06391097026493407;
					}
					else {
						var25 = 0.0626629591313626;
					}
				}
			}
			else {
				if (input[2] > 9.500000000000002) {
					var25 = 0.05531301954690145;
				}
				else {
					var25 = 0.048166290576543466;
				}
			}
		}
		else {
			if (input[2] > 6.500000000000001) {
				if (input[2] > 7.500000000000001) {
					var25 = 0.033867308556124014;
				}
				else {
					var25 = 0.019120411159009663;
				}
			}
			else {
				var25 = 0.0009915043577677406;
			}
		}
	}
	else {
		if (input[2] > 4.500000000000001) {
			var25 = -0.014696810620542641;
		}
		else {
			if (input[2] > 2.5000000000000004) {
				if (input[2] > 3.5000000000000004) {
					var25 = -0.048803077454212807;
				}
				else {
					var25 = -0.04650511947391995;
				}
			}
			else {
				var25 = -0.06480819278924216;
			}
		}
	}
	double var26;
	if (input[2] > 5.500000000000001) {
		if (input[2] > 8.500000000000002) {
			if (input[2] > 10.500000000000002) {
				if (input[2] > 12.500000000000002) {
					if (input[2] > 13.500000000000002) {
						var26 = 0.06844162046652762;
					}
					else {
						var26 = 0.06690114868997134;
					}
				}
				else {
					if (input[2] > 11.500000000000002) {
						var26 = 0.06302774650701597;
					}
					else {
						var26 = 0.061720111041339905;
					}
				}
			}
			else {
				if (input[2] > 9.500000000000002) {
					var26 = 0.05408508515303732;
				}
				else {
					var26 = 0.04676849209125758;
				}
			}
		}
		else {
			if (input[2] > 6.500000000000001) {
				if (input[2] > 7.500000000000001) {
					var26 = 0.03244191205820276;
				}
				else {
					var26 = 0.01808971880858173;
				}
			}
			else {
				var26 = 0.0009318493750589822;
			}
		}
	}
	else {
		if (input[2] > 4.500000000000001) {
			var26 = -0.0139262677890186;
		}
		else {
			if (input[2] > 2.5000000000000004) {
				if (input[2] > 3.5000000000000004) {
					var26 = -0.047716777834681486;
				}
				else {
					var26 = -0.045367386980865794;
				}
			}
			else {
				var26 = -0.06438321940459353;
			}
		}
	}
	double var27;
	if (input[2] > 5.500000000000001) {
		if (input[2] > 8.500000000000002) {
			if (input[2] > 10.500000000000002) {
				if (input[2] > 12.500000000000002) {
					if (input[2] > 13.500000000000002) {
						var27 = 0.06788319208077206;
					}
					else {
						var27 = 0.06625253301862502;
					}
				}
				else {
					if (input[2] > 11.500000000000002) {
						var27 = 0.062174499696446284;
					}
					else {
						var27 = 0.060804912224903696;
					}
				}
			}
			else {
				if (input[2] > 9.500000000000002) {
					var27 = 0.0528794973980187;
				}
				else {
					var27 = 0.04539791830067941;
				}
			}
		}
		else {
			if (input[2] > 6.500000000000001) {
				if (input[2] > 7.500000000000001) {
					var27 = 0.031063929092627975;
				}
				else {
					var27 = 0.017111281414790146;
				}
			}
			else {
				var27 = 0.0008757914555679971;
			}
		}
	}
	else {
		if (input[2] > 4.500000000000001) {
			var27 = -0.01319154928097442;
		}
		else {
			if (input[2] > 2.5000000000000004) {
				if (input[2] > 3.5000000000000004) {
					var27 = -0.04663492067412276;
				}
				else {
					var27 = -0.044236097087884015;
				}
			}
			else {
				var27 = -0.06397997611477829;
			}
		}
	}
	double var28;
	if (input[2] > 5.500000000000001) {
		if (input[2] > 8.500000000000002) {
			if (input[2] > 10.500000000000002) {
				if (input[2] > 12.500000000000002) {
					if (input[2] > 13.500000000000002) {
						var28 = 0.067365814521495;
					}
					else {
						var28 = 0.06563948062732043;
					}
				}
				else {
					if (input[2] > 11.500000000000002) {
						var28 = 0.061346772223142304;
					}
					else {
						var28 = 0.05991293174307311;
					}
				}
			}
			else {
				if (input[2] > 9.500000000000002) {
					var28 = 0.05169268030601492;
				}
				else {
					var28 = 0.04405208934835348;
				}
			}
		}
		else {
			if (input[2] > 7.500000000000001) {
				var28 = 0.029731576726105723;
			}
			else {
				if (input[2] > 6.500000000000001) {
					var28 = 0.016182498271834184;
				}
				else {
					var28 = 0.0008231165710425887;
				}
			}
		}
	}
	else {
		if (input[2] > 4.500000000000001) {
			var28 = -0.01249135227273917;
		}
		else {
			if (input[2] > 2.5000000000000004) {
				if (input[2] > 3.5000000000000004) {
					var28 = -0.04555635318373669;
				}
				else {
					var28 = -0.04311043538036398;
				}
			}
			else {
				var28 = -0.06359631317433413;
			}
		}
	}
	double var29;
	if (input[2] > 5.500000000000001) {
		if (input[2] > 8.500000000000002) {
			if (input[2] > 10.500000000000002) {
				if (input[2] > 12.500000000000002) {
					if (input[2] > 13.500000000000002) {
						var29 = 0.06688595308593197;
					}
					else {
						var29 = 0.06505818642202388;
					}
				}
				else {
					if (input[2] > 11.500000000000002) {
						var29 = 0.06054052320654978;
					}
					else {
						var29 = 0.05904018986889709;
					}
				}
			}
			else {
				if (input[2] > 9.500000000000002) {
					var29 = 0.050521551843667155;
				}
				else {
					var29 = 0.042728970797704206;
				}
			}
		}
		else {
			if (input[2] > 7.500000000000001) {
				var29 = 0.028443352925255298;
			}
			else {
				if (input[2] > 6.500000000000001) {
					var29 = 0.015300954973313184;
				}
				else {
					var29 = 0.0007736149560488806;
				}
			}
		}
	}
	else {
		if (input[2] > 4.500000000000001) {
			var29 = -0.011824416167824744;
		}
		else {
			if (input[2] > 2.5000000000000004) {
				if (input[2] > 3.5000000000000004) {
					var29 = -0.04448018693244479;
				}
				else {
					var29 = -0.041989843184274935;
				}
			}
			else {
				var29 = -0.06323022853049041;
			}
		}
	}
	double var30;
	if (input[2] > 4.500000000000001) {
		if (input[2] > 8.500000000000002) {
			if (input[2] > 10.500000000000002) {
				if (input[2] > 12.500000000000002) {
					if (input[2] > 13.500000000000002) {
						var30 = 0.06644044265066831;
					}
					else {
						var30 = 0.06450517757400144;
					}
				}
				else {
					if (input[2] > 11.500000000000002) {
						var30 = 0.05975208501339958;
					}
					else {
						var30 = 0.05818305514683863;
					}
				}
			}
			else {
				if (input[2] > 9.500000000000002) {
					var30 = 0.04936346494174541;
				}
				else {
					var30 = 0.04142697254712479;
				}
			}
		}
		else {
			if (input[2] > 6.500000000000001) {
				if (input[2] > 7.500000000000001) {
					var30 = 0.027197956888866143;
				}
				else {
					var30 = 0.014464394482020162;
				}
			}
			else {
				if (input[2] > 5.500000000000001) {
					var30 = 0.0007271030949238982;
				}
				else {
					var30 = -0.01118948083418174;
				}
			}
		}
	}
	else {
		if (input[2] > 2.5000000000000004) {
			if (input[2] > 3.5000000000000004) {
				var30 = -0.04340580457229529;
			}
			else {
				var30 = -0.040874012946684316;
			}
		}
		else {
			var30 = -0.06287989272820001;
		}
	}
	double var31;
	if (input[2] > 4.500000000000001) {
		if (input[2] > 8.500000000000002) {
			if (input[2] > 10.500000000000002) {
				if (input[2] > 12.500000000000002) {
					if (input[2] > 13.500000000000002) {
						var31 = 0.06602644622311905;
					}
					else {
						var31 = 0.06397729605907203;
					}
				}
				else {
					if (input[2] > 11.500000000000002) {
						var31 = 0.058978090429665724;
					}
					else {
						var31 = 0.05733824859255024;
					}
				}
			}
			else {
				if (input[2] > 9.500000000000002) {
					var31 = 0.04821618924336305;
				}
				else {
					var31 = 0.040144869656544735;
				}
			}
		}
		else {
			if (input[2] > 6.500000000000001) {
				if (input[2] > 7.500000000000001) {
					var31 = 0.025994269812044123;
				}
				else {
					var31 = 0.013670666698436078;
				}
			}
			else {
				if (input[2] > 5.500000000000001) {
					var31 = 0.0006833850087218332;
				}
				else {
					var31 = -0.010585336720685868;
				}
			}
		}
	}
	else {
		if (input[2] > 2.5000000000000004) {
			if (input[2] > 3.5000000000000004) {
				var31 = -0.04233279654041899;
			}
			else {
				var31 = -0.039762835557633845;
			}
		}
		else {
			var31 = -0.06254359280787845;
		}
	}
	double var32;
	if (input[2] > 4.500000000000001) {
		if (input[2] > 8.500000000000002) {
			if (input[2] > 10.500000000000002) {
				if (input[2] > 12.500000000000002) {
					if (input[2] > 13.500000000000002) {
						var32 = 0.06564138783904044;
					}
					else {
						var32 = 0.06347166738430315;
					}
				}
				else {
					if (input[2] > 11.500000000000002) {
						var32 = 0.05821550322935095;
					}
					else {
						var32 = 0.056502816310035286;
					}
				}
			}
			else {
				if (input[2] > 9.500000000000002) {
					var32 = 0.04707786282519876;
				}
				else {
					var32 = 0.038881765932200885;
				}
			}
		}
		else {
			if (input[2] > 6.500000000000001) {
				if (input[2] > 7.500000000000001) {
					var32 = 0.024831313380488298;
				}
				else {
					var32 = 0.012917750127989425;
				}
			}
			else {
				if (input[2] > 5.500000000000001) {
					var32 = 0.0006423069100764312;
				}
				else {
					var32 = -0.010010778912729293;
				}
			}
		}
	}
	else {
		if (input[2] > 2.5000000000000004) {
			if (input[2] > 3.5000000000000004) {
				var32 = -0.041260982388429894;
			}
			else {
				var32 = -0.03865643194545799;
			}
		}
		else {
			var32 = -0.06221973871652674;
		}
	}
	double var33;
	if (input[2] > 4.500000000000001) {
		if (input[2] > 8.500000000000002) {
			if (input[2] > 10.500000000000002) {
				if (input[2] > 12.500000000000002) {
					if (input[2] > 13.500000000000002) {
						var33 = 0.06528297596803653;
					}
					else {
						var33 = 0.06298563134473585;
					}
				}
				else {
					if (input[2] > 11.500000000000002) {
						var33 = 0.057461500844008646;
					}
					else {
						var33 = 0.05567404640617452;
					}
				}
			}
			else {
				if (input[2] > 9.500000000000002) {
					var33 = 0.045946973779208714;
				}
				else {
					var33 = 0.03763706944341707;
				}
			}
		}
		else {
			if (input[2] > 6.500000000000001) {
				if (input[2] > 7.500000000000001) {
					var33 = 0.023708201233973845;
				}
				else {
					var33 = 0.012203717618626687;
				}
			}
			else {
				if (input[2] > 5.500000000000001) {
					var33 = 0.000603698981897822;
				}
				else {
					var33 = -0.009464634023437413;
				}
			}
		}
	}
	else {
		if (input[2] > 2.5000000000000004) {
			if (input[2] > 3.5000000000000004) {
				var33 = -0.04019039391598512;
			}
			else {
				var33 = -0.03755508317974784;
			}
		}
		else {
			var33 = -0.06190683943795592;
		}
	}
	double var34;
	if (input[2] > 4.500000000000001) {
		if (input[2] > 8.500000000000002) {
			if (input[2] > 10.500000000000002) {
				if (input[2] > 12.500000000000002) {
					if (input[2] > 13.500000000000002) {
						var34 = 0.06494910194072069;
					}
					else {
						var34 = 0.06251673178446504;
					}
				}
				else {
					if (input[2] > 11.500000000000002) {
						var34 = 0.05671352574582554;
					}
					else {
						var34 = 0.054849490460799184;
					}
				}
			}
			else {
				if (input[2] > 9.500000000000002) {
					var34 = 0.04482230778932963;
				}
				else {
					var34 = 0.036410414689920755;
				}
			}
		}
		else {
			if (input[2] > 6.500000000000001) {
				if (input[2] > 7.500000000000001) {
					var34 = 0.022624131044159394;
				}
				else {
					var34 = 0.011526742720471961;
				}
			}
			else {
				if (input[2] > 5.500000000000001) {
					var34 = 0.0005674204654058363;
				}
				else {
					var34 = -0.008945754439325462;
				}
			}
		}
	}
	else {
		if (input[2] > 2.5000000000000004) {
			if (input[2] > 3.5000000000000004) {
				var34 = -0.0391212383204365;
			}
			else {
				var34 = -0.03645925265548035;
			}
		}
		else {
			var34 = -0.061603499639032375;
		}
	}
	double var35;
	if (input[2] > 4.500000000000001) {
		if (input[2] > 8.500000000000002) {
			if (input[2] > 10.500000000000002) {
				if (input[2] > 12.500000000000002) {
					if (input[2] > 13.500000000000002) {
						var35 = 0.06463787879462;
					}
					else {
						var35 = 0.06206269938866506;
					}
				}
				else {
					if (input[2] > 11.500000000000002) {
						var35 = 0.05596921453099291;
					}
					else {
						var35 = 0.0540269429255016;
					}
				}
			}
			else {
				if (input[2] > 9.500000000000002) {
					var35 = 0.043702945648004345;
				}
				else {
					var35 = 0.0352016801582773;
				}
			}
		}
		else {
			if (input[2] > 6.500000000000001) {
				if (input[2] > 7.500000000000001) {
					var35 = 0.02157835474503803;
				}
				else {
					var35 = 0.010885070575495618;
				}
			}
			else {
				if (input[2] > 5.500000000000001) {
					var35 = 0.0005333229933775648;
				}
				else {
					var35 = -0.008453023953048406;
				}
			}
		}
	}
	else {
		if (input[2] > 2.5000000000000004) {
			if (input[2] > 3.5000000000000004) {
				var35 = -0.03805388799203035;
			}
			else {
				var35 = -0.03536952444771582;
			}
		}
		else {
			var35 = -0.061308389054580595;
		}
	}
	double var36;
	if (input[2] > 4.500000000000001) {
		if (input[2] > 8.500000000000002) {
			if (input[2] > 10.500000000000002) {
				if (input[2] > 12.500000000000002) {
					if (input[2] > 13.500000000000002) {
						var36 = 0.06434757576520155;
					}
					else {
						var36 = 0.061621419963017905;
					}
				}
				else {
					if (input[2] > 11.500000000000002) {
						var36 = 0.05522641407854497;
					}
					else {
						var36 = 0.053204412292050356;
					}
				}
			}
			else {
				if (input[2] > 9.500000000000002) {
					var36 = 0.04258824855759561;
				}
				else {
					var36 = 0.0340109285081213;
				}
			}
		}
		else {
			if (input[2] > 6.500000000000001) {
				if (input[2] > 7.500000000000001) {
					var36 = 0.020570154200625326;
				}
				else {
					var36 = 0.010277041315689558;
				}
			}
			else {
				if (input[2] > 5.500000000000001) {
					var36 = 0.0005012748758094832;
				}
				else {
					var36 = -0.007985345292936485;
				}
			}
		}
	}
	else {
		if (input[2] > 2.5000000000000004) {
			if (input[2] > 3.5000000000000004) {
				var36 = -0.03698888712682812;
			}
			else {
				var36 = -0.03428662761434592;
			}
		}
		else {
			var36 = -0.061020269239029715;
		}
	}
	double var37;
	if (input[2] > 4.500000000000001) {
		if (input[2] > 8.500000000000002) {
			if (input[2] > 10.500000000000002) {
				if (input[2] > 12.500000000000002) {
					if (input[2] > 13.500000000000002) {
						var37 = 0.06407663429742456;
					}
					else {
						var37 = 0.06119091217585669;
					}
				}
				else {
					if (input[2] > 11.500000000000002) {
						var37 = 0.0544831475753104;
					}
					else {
						var37 = 0.052380112511544244;
					}
				}
			}
			else {
				if (input[2] > 9.500000000000002) {
					var37 = 0.04147780252037386;
				}
				else {
					var37 = 0.03283837585641563;
				}
			}
		}
		else {
			if (input[2] > 6.500000000000001) {
				if (input[2] > 7.500000000000001) {
					var37 = 0.01959884438717074;
				}
				else {
					var37 = 0.009701049869616644;
				}
			}
			else {
				if (input[2] > 5.500000000000001) {
					var37 = 0.0004711573218405565;
				}
				else {
					var37 = -0.00754164478890966;
				}
			}
		}
	}
	else {
		if (input[2] > 2.5000000000000004) {
			if (input[2] > 3.5000000000000004) {
				var37 = -0.035926898795005775;
			}
			else {
				var37 = -0.03321140500121008;
			}
		}
		else {
			var37 = -0.060737941804760984;
		}
	}
	double var38;
	if (input[2] > 4.500000000000001) {
		if (input[2] > 8.500000000000002) {
			if (input[2] > 10.500000000000002) {
				if (input[2] > 12.500000000000002) {
					if (input[2] > 13.500000000000002) {
						var38 = 0.06382361560904257;
					}
					else {
						var38 = 0.06076933103106171;
					}
				}
				else {
					if (input[2] > 11.500000000000002) {
						var38 = 0.05373761890246203;
					}
					else {
						var38 = 0.051552438915896455;
					}
				}
			}
			else {
				if (input[2] > 9.500000000000002) {
					var38 = 0.04037143421214851;
				}
				else {
					var38 = 0.03168436012836607;
				}
			}
		}
		else {
			if (input[2] > 6.500000000000001) {
				if (input[2] > 7.500000000000001) {
					var38 = 0.018663733452509657;
				}
				else {
					var38 = 0.009155576049908664;
				}
			}
			else {
				if (input[2] > 5.500000000000001) {
					var38 = 0.0004428475821195639;
				}
				else {
					var38 = -0.007120879830319309;
				}
			}
		}
	}
	else {
		if (input[2] > 2.5000000000000004) {
			if (input[2] > 3.5000000000000004) {
				var38 = -0.034868739366203924;
			}
			else {
				var38 = -0.03214477207123078;
			}
		}
		else {
			var38 = -0.06046028444373357;
		}
	}
	double var39;
	if (input[2] > 4.500000000000001) {
		if (input[2] > 8.500000000000002) {
			if (input[2] > 10.500000000000002) {
				if (input[2] > 12.500000000000002) {
					if (input[2] > 13.500000000000002) {
						var39 = 0.0635871996190767;
					}
					else {
						var39 = 0.060354916454945;
					}
				}
				else {
					if (input[2] > 11.500000000000002) {
						var39 = 0.0529881883200563;
					}
					else {
						var39 = 0.05071999967266414;
					}
				}
			}
			else {
				if (input[2] > 9.500000000000002) {
					var39 = 0.03926917924851594;
				}
				else {
					var39 = 0.030549348801704405;
				}
			}
		}
		else {
			if (input[2] > 6.500000000000001) {
				if (input[2] > 7.500000000000001) {
					var39 = 0.017764141676583498;
				}
				else {
					var39 = 0.00863915063941691;
				}
			}
			else {
				if (input[2] > 5.500000000000001) {
					var39 = 0.00041624794969115543;
				}
				else {
					var39 = -0.006722035326580189;
				}
			}
		}
	}
	else {
		if (input[2] > 2.5000000000000004) {
			if (input[2] > 3.5000000000000004) {
				var39 = -0.03381531506459333;
			}
			else {
				var39 = -0.03108773069782847;
			}
		}
		else {
			var39 = -0.060186198850984245;
		}
	}
	double var40;
	if (input[2] > 4.500000000000001) {
		if (input[2] > 8.500000000000002) {
			if (input[2] > 10.500000000000002) {
				if (input[2] > 12.500000000000002) {
					if (input[2] > 13.500000000000002) {
						var40 = 0.0633662013110862;
					}
					else {
						var40 = 0.05994602825030369;
					}
				}
				else {
					if (input[2] > 11.500000000000002) {
						var40 = 0.05223336781088234;
					}
					else {
						var40 = 0.04988155248480519;
					}
				}
			}
			else {
				if (input[2] > 9.500000000000002) {
					var40 = 0.0381712546922991;
				}
				else {
					var40 = 0.029433870924448317;
				}
			}
		}
		else {
			if (input[2] > 6.500000000000001) {
				if (input[2] > 7.500000000000001) {
					var40 = 0.016899381599336256;
				}
				else {
					var40 = 0.00815036940731884;
				}
			}
			else {
				if (input[2] > 5.500000000000001) {
					var40 = 0.00039124435041946955;
				}
				else {
					var40 = -0.006344120584489428;
				}
			}
		}
	}
	else {
		if (input[2] > 2.5000000000000004) {
			if (input[2] > 3.5000000000000004) {
				var40 = -0.03276760832031629;
			}
			else {
				var40 = -0.030041316741906483;
			}
		}
		else {
			var40 = -0.05991465137682436;
		}
	}
	double var41;
	if (input[2] > 4.500000000000001) {
		if (input[2] > 8.500000000000002) {
			if (input[2] > 10.500000000000002) {
				if (input[2] > 12.500000000000002) {
					if (input[2] > 13.500000000000002) {
						var41 = 0.06315951273793238;
					}
					else {
						var41 = 0.05954109237121261;
					}
				}
				else {
					if (input[2] > 11.500000000000002) {
						var41 = 0.05147184530160687;
					}
					else {
						var41 = 0.04903605980166469;
					}
				}
			}
			else {
				if (input[2] > 9.500000000000002) {
					var41 = 0.037078055610514325;
				}
				else {
					var41 = 0.028338518010365205;
				}
			}
		}
		else {
			if (input[2] > 6.500000000000001) {
				if (input[2] > 7.500000000000001) {
					var41 = 0.016068731199128394;
				}
				else {
					var41 = 0.007687889476542881;
				}
			}
			else {
				if (input[2] > 5.500000000000001) {
					var41 = 0.0003677437719731234;
				}
				else {
					var41 = -0.0059861935286465336;
				}
			}
		}
	}
	else {
		if (input[2] > 2.5000000000000004) {
			if (input[2] > 3.5000000000000004) {
				var41 = -0.031726711931676185;
			}
			else {
				var41 = -0.029006640158008412;
			}
		}
		else {
			var41 = -0.05964463660574032;
		}
	}
	double var42;
	if (input[2] > 4.500000000000001) {
		if (input[2] > 8.500000000000002) {
			if (input[2] > 10.500000000000002) {
				if (input[2] > 12.500000000000002) {
					if (input[2] > 13.500000000000002) {
						var42 = 0.0629661296306647;
					}
					else {
						var42 = 0.05913862091189673;
					}
				}
				else {
					if (input[2] > 11.500000000000002) {
						var42 = 0.050702423386843755;
					}
					else {
						var42 = 0.04818263017907144;
					}
				}
			}
			else {
				if (input[2] > 9.500000000000002) {
					var42 = 0.03599012423389842;
				}
				else {
					var42 = 0.027263925443863846;
				}
			}
		}
		else {
			if (input[2] > 6.500000000000001) {
				if (input[2] > 7.500000000000001) {
					var42 = 0.015271481151824163;
				}
				else {
					var42 = 0.007250413985685056;
				}
			}
			else {
				if (input[2] > 5.500000000000001) {
					var42 = 0.0003456572227725068;
				}
				else {
					var42 = -0.005647323201397935;
				}
			}
		}
	}
	else {
		if (input[2] > 2.5000000000000004) {
			if (input[2] > 3.5000000000000004) {
				var42 = -0.030693754853506044;
			}
			else {
				var42 = -0.027984800181375603;
			}
		}
		else {
			var42 = -0.0593751726398963;
		}
	}
	double var43;
	if (input[2] > 4.500000000000001) {
		if (input[2] > 8.500000000000002) {
			if (input[2] > 10.500000000000002) {
				if (input[2] > 12.500000000000002) {
					if (input[2] > 13.500000000000002) {
						var43 = 0.06278512557587138;
					}
					else {
						var43 = 0.05873718380461088;
					}
				}
				else {
					if (input[2] > 11.500000000000002) {
						var43 = 0.04992407551605282;
					}
					else {
						var43 = 0.047320557277116995;
					}
				}
			}
			else {
				if (input[2] > 9.500000000000002) {
					var43 = 0.03490813882467915;
				}
				else {
					var43 = 0.026210750231781987;
				}
			}
		}
		else {
			if (input[2] > 6.500000000000001) {
				if (input[2] > 7.500000000000001) {
					var43 = 0.014506871422387442;
				}
				else {
					var43 = 0.006836709555260534;
				}
			}
			else {
				if (input[2] > 5.500000000000001) {
					var43 = 0.000324900287725207;
				}
				else {
					var43 = -0.00532660237374863;
				}
			}
		}
	}
	else {
		if (input[2] > 2.5000000000000004) {
			if (input[2] > 3.5000000000000004) {
				var43 = -0.029669912836077318;
			}
			else {
				var43 = -0.026976910001764647;
			}
		}
		else {
			var43 = -0.05910531867393354;
		}
	}
	double var44;
	if (input[2] > 4.500000000000001) {
		if (input[2] > 8.500000000000002) {
			if (input[2] > 10.500000000000002) {
				if (input[2] > 12.500000000000002) {
					if (input[2] > 13.500000000000002) {
						var44 = 0.06261563948298636;
					}
					else {
						var44 = 0.05833542822721109;
					}
				}
				else {
					if (input[2] > 11.500000000000002) {
						var44 = 0.04913592009774081;
					}
					else {
						var44 = 0.046449289257534;
					}
				}
			}
			else {
				if (input[2] > 9.500000000000002) {
					var44 = 0.03383289874890557;
				}
				else {
					var44 = 0.025179637552805768;
				}
			}
		}
		else {
			if (input[2] > 6.500000000000001) {
				if (input[2] > 7.500000000000001) {
					var44 = 0.013774144443223106;
				}
				else {
					var44 = 0.006445600490562428;
				}
			}
			else {
				if (input[2] > 5.500000000000001) {
					var44 = 0.0003053885888055584;
				}
				else {
					var44 = -0.005023175180982827;
				}
			}
		}
	}
	else {
		if (input[2] > 2.5000000000000004) {
			if (input[2] > 3.5000000000000004) {
				var44 = -0.02865638659344942;
			}
			else {
				var44 = -0.025984080992085302;
			}
		}
		else {
			var44 = -0.0588341515323475;
		}
	}
	double var45;
	if (input[2] > 4.500000000000001) {
		if (input[2] > 8.500000000000002) {
			if (input[2] > 10.500000000000002) {
				if (input[2] > 12.500000000000002) {
					if (input[2] > 13.500000000000002) {
						var45 = 0.06245687704910963;
					}
					else {
						var45 = 0.057932029469325644;
					}
				}
				else {
					if (input[2] > 11.500000000000002) {
						var45 = 0.04833719736494309;
					}
					else {
						var45 = 0.04556843763731107;
					}
				}
			}
			else {
				if (input[2] > 9.500000000000002) {
					var45 = 0.032765295306012486;
				}
				else {
					var45 = 0.024171240004582997;
				}
			}
		}
		else {
			if (input[2] > 6.500000000000001) {
				if (input[2] > 7.500000000000001) {
					var45 = 0.01307251220541052;
				}
				else {
					var45 = 0.006075941530796265;
				}
			}
			else {
				if (input[2] > 5.500000000000001) {
					var45 = 0.0002870462179703813;
				}
				else {
					var45 = -0.004736210190495608;
				}
			}
		}
	}
	else {
		if (input[2] > 2.5000000000000004) {
			if (input[2] > 3.5000000000000004) {
				var45 = -0.027654390388265452;
			}
			else {
				var45 = -0.02500739148441351;
			}
		}
		else {
			var45 = -0.05856077435979167;
		}
	}
	double var46;
	if (input[2] > 4.500000000000001) {
		if (input[2] > 8.500000000000002) {
			if (input[2] > 10.500000000000002) {
				if (input[2] > 12.500000000000002) {
					if (input[2] > 13.500000000000002) {
						var46 = 0.06230812172979017;
					}
					else {
						var46 = 0.057525748950199705;
					}
				}
				else {
					if (input[2] > 11.500000000000002) {
						var46 = 0.04752730711450818;
					}
					else {
						var46 = 0.04467777316136447;
					}
				}
			}
			else {
				if (input[2] > 9.500000000000002) {
					var46 = 0.03170630948643878;
				}
				else {
					var46 = 0.023186162364247625;
				}
			}
		}
		else {
			if (input[2] > 6.500000000000001) {
				if (input[2] > 7.500000000000001) {
					var46 = 0.012401162914420115;
				}
				else {
					var46 = 0.005726655630886154;
				}
			}
			else {
				if (input[2] > 5.500000000000001) {
					var46 = 0.0002698138053152677;
				}
				else {
					var46 = -0.004464886001423868;
				}
			}
		}
	}
	else {
		if (input[2] > 2.5000000000000004) {
			if (input[2] > 3.5000000000000004) {
				var46 = -0.026665140239635943;
			}
			else {
				var46 = -0.024047889878859682;
			}
		}
		else {
			var46 = -0.05828430455580057;
		}
	}
	double var47;
	if (input[2] > 4.500000000000001) {
		if (input[2] > 8.500000000000002) {
			if (input[2] > 10.500000000000002) {
				if (input[2] > 12.500000000000002) {
					if (input[2] > 13.500000000000002) {
						var47 = 0.06216869490057458;
					}
					else {
						var47 = 0.0571153649532135;
					}
				}
				else {
					if (input[2] > 11.500000000000002) {
						var47 = 0.046705796444297315;
					}
					else {
						var47 = 0.04377722915207171;
					}
				}
			}
			else {
				if (input[2] > 9.500000000000002) {
					var47 = 0.03065698556787513;
				}
				else {
					var47 = 0.022224992454671955;
				}
			}
		}
		else {
			if (input[2] > 6.500000000000001) {
				if (input[2] > 7.500000000000001) {
					var47 = 0.011759282752134345;
				}
				else {
					var47 = 0.005396688883433067;
				}
			}
			else {
				if (input[2] > 5.500000000000001) {
					var47 = 0.00025361556283903943;
				}
				else {
					var47 = -0.00420844305141997;
				}
			}
		}
	}
	else {
		if (input[2] > 2.5000000000000004) {
			if (input[2] > 3.5000000000000004) {
				var47 = -0.025689822827131125;
			}
			else {
				var47 = -0.023106580620250224;
			}
		}
		else {
			var47 = -0.058003868543810025;
		}
	}
	double var48;
	if (input[2] > 4.500000000000001) {
		if (input[2] > 8.500000000000002) {
			if (input[2] > 10.500000000000002) {
				if (input[2] > 12.500000000000002) {
					if (input[2] > 13.500000000000002) {
						var48 = 0.062037977542656844;
					}
					else {
						var48 = 0.05669971439807197;
					}
				}
				else {
					if (input[2] > 11.500000000000002) {
						var48 = 0.045872335568239046;
					}
					else {
						var48 = 0.04286688179170028;
					}
				}
			}
			else {
				if (input[2] > 9.500000000000002) {
					var48 = 0.02961840626718054;
				}
				else {
					var48 = 0.02128825402051579;
				}
			}
		}
		else {
			if (input[2] > 6.500000000000001) {
				if (input[2] > 7.500000000000001) {
					var48 = 0.011146023326556918;
				}
				else {
					var48 = 0.005085064263039144;
				}
			}
			else {
				if (input[2] > 5.500000000000001) {
					var48 = 0.0002383883525363471;
				}
				else {
					var48 = -0.003966136425272094;
				}
			}
		}
	}
	else {
		if (input[2] > 2.5000000000000004) {
			if (input[2] > 3.5000000000000004) {
				var48 = -0.024729608696028565;
			}
			else {
				var48 = -0.022184395826681965;
			}
		}
		else {
			var48 = -0.057718628071981304;
		}
	}
	double var49;
	if (input[2] > 4.500000000000001) {
		if (input[2] > 8.500000000000002) {
			if (input[2] > 10.500000000000002) {
				if (input[2] > 12.500000000000002) {
					if (input[2] > 13.500000000000002) {
						var49 = 0.06191539106522834;
					}
					else {
						var49 = 0.05627767454731847;
					}
				}
				else {
					if (input[2] > 11.500000000000002) {
						var49 = 0.045026740268558824;
					}
					else {
						var49 = 0.04194696119140656;
					}
				}
			}
			else {
				if (input[2] > 9.500000000000002) {
					var49 = 0.028591691453812487;
				}
				else {
					var49 = 0.020376408705180593;
				}
			}
		}
		else {
			if (input[2] > 6.500000000000001) {
				if (input[2] > 7.500000000000001) {
					var49 = 0.010560533160785252;
				}
				else {
					var49 = 0.0047908231706584765;
				}
			}
			else {
				if (input[2] > 5.500000000000001) {
					var49 = 0.00022407316732905578;
				}
				else {
					var49 = -0.0037372418432289924;
				}
			}
		}
	}
	else {
		if (input[2] > 2.5000000000000004) {
			if (input[2] > 3.5000000000000004) {
				var49 = -0.023785607882334935;
			}
			else {
				var49 = -0.02128221609201645;
			}
		}
		else {
			var49 = -0.057427731599895365;
		}
	}
	double var50;
	if (input[2] > 4.500000000000001) {
		if (input[2] > 8.500000000000002) {
			if (input[2] > 10.500000000000002) {
				if (input[2] > 12.500000000000002) {
					if (input[2] > 13.500000000000002) {
						var50 = 0.06180038938353195;
					}
					else {
						var50 = 0.05584815006607612;
					}
				}
				else {
					if (input[2] > 11.500000000000002) {
						var50 = 0.044168990210247616;
					}
					else {
						var50 = 0.04101784467973269;
					}
				}
			}
			else {
				if (input[2] > 9.500000000000002) {
					var50 = 0.02757797507915658;
				}
				else {
					var50 = 0.019489873619267226;
				}
			}
		}
		else {
			if (input[2] > 6.500000000000001) {
				if (input[2] > 7.500000000000001) {
					var50 = 0.010001946111720903;
				}
				else {
					var50 = 0.004513058642214337;
				}
			}
			else {
				if (input[2] > 5.500000000000001) {
					var50 = 0.00021061919183120104;
				}
				else {
					var50 = -0.003521083281696401;
				}
			}
		}
	}
	else {
		if (input[2] > 2.5000000000000004) {
			if (input[2] > 3.5000000000000004) {
				var50 = -0.022858894570993236;
			}
			else {
				var50 = -0.02040083926195836;
			}
		}
		else {
			var50 = -0.057130358770625195;
		}
	}
	double var51;
	if (input[2] > 4.500000000000001) {
		if (input[2] > 8.500000000000002) {
			if (input[2] > 10.500000000000002) {
				if (input[2] > 12.500000000000002) {
					if (input[2] > 13.500000000000002) {
						var51 = 0.0616924950452494;
					}
					else {
						var51 = 0.055410104075303626;
					}
				}
				else {
					if (input[2] > 11.500000000000002) {
						var51 = 0.043299170859267995;
					}
					else {
						var51 = 0.0400800478875613;
					}
				}
			}
			else {
				if (input[2] > 9.500000000000002) {
					var51 = 0.026578381242296976;
				}
				else {
					var51 = 0.01862897608172844;
				}
			}
		}
		else {
			if (input[2] > 6.500000000000001) {
				if (input[2] > 7.500000000000001) {
					var51 = 0.009469399662300636;
				}
				else {
					var51 = 0.004250906500453108;
				}
			}
			else {
				if (input[2] > 5.500000000000001) {
					var51 = 0.00019797625895576895;
				}
				else {
					var51 = -0.00331700335952857;
				}
			}
		}
	}
	else {
		if (input[2] > 2.5000000000000004) {
			if (input[2] > 3.5000000000000004) {
				var51 = -0.021950464689018095;
			}
			else {
				var51 = -0.01954098361884768;
			}
		}
		else {
			var51 = -0.05682568882792967;
		}
	}
	double var52;
	if (input[2] > 4.500000000000001) {
		if (input[2] > 8.500000000000002) {
			if (input[2] > 10.500000000000002) {
				if (input[2] > 12.500000000000002) {
					if (input[2] > 13.500000000000002) {
						var52 = 0.06159123497735724;
					}
					else {
						var52 = 0.05496251449941822;
					}
				}
				else {
					if (input[2] > 11.500000000000002) {
						var52 = 0.04241753523692605;
					}
					else {
						var52 = 0.039134218130928926;
					}
				}
			}
			else {
				if (input[2] > 9.500000000000002) {
					var52 = 0.025594036784777015;
				}
				else {
					var52 = 0.017793979734921472;
				}
			}
		}
		else {
			if (input[2] > 6.500000000000001) {
				if (input[2] > 7.500000000000001) {
					var52 = 0.00896200564092131;
				}
				else {
					var52 = 0.004003542640575538;
				}
			}
			else {
				if (input[2] > 5.500000000000001) {
					var52 = 0.00018608932237806336;
				}
				else {
					var52 = -0.00312436524117842;
				}
			}
		}
	}
	else {
		if (input[2] > 2.5000000000000004) {
			if (input[2] > 3.5000000000000004) {
				var52 = -0.021061252288711974;
			}
			else {
				var52 = -0.018703288109569303;
			}
		}
		else {
			var52 = -0.05651290882404814;
		}
	}
	double var53;
	if (input[2] > 4.500000000000001) {
		if (input[2] > 8.500000000000002) {
			if (input[2] > 10.500000000000002) {
				if (input[2] > 12.500000000000002) {
					if (input[2] > 13.500000000000002) {
						var53 = 0.06149618564881836;
					}
					else {
						var53 = 0.05450442162863737;
					}
				}
				else {
					if (input[2] > 11.500000000000002) {
						var53 = 0.04152445213762089;
					}
					else {
						var53 = 0.03818113759640228;
					}
				}
			}
			else {
				if (input[2] > 9.500000000000002) {
					var53 = 0.024626013888399807;
				}
				else {
					var53 = 0.016985077816536343;
				}
			}
		}
		else {
			if (input[2] > 6.500000000000001) {
				if (input[2] > 7.500000000000001) {
					var53 = 0.008478897419741071;
				}
				else {
					var53 = 0.003770172710999565;
				}
			}
			else {
				if (input[2] > 5.500000000000001) {
					var53 = 0.00017492049378488452;
				}
				else {
					var53 = -0.00294257302713966;
				}
			}
		}
	}
	else {
		if (input[2] > 2.5000000000000004) {
			if (input[2] > 3.5000000000000004) {
				var53 = -0.02019210666162535;
			}
			else {
				var53 = -0.017888297689068185;
			}
		}
		else {
			var53 = -0.05619122702083405;
		}
	}
	double var54;
	if (input[2] > 2.5000000000000004) {
		if (input[2] > 8.500000000000002) {
			if (input[2] > 10.500000000000002) {
				if (input[2] > 12.500000000000002) {
					if (input[2] > 13.500000000000002) {
						var54 = 0.06140695093233718;
					}
					else {
						var54 = 0.05403489046118062;
					}
				}
				else {
					if (input[2] > 11.500000000000002) {
						var54 = 0.04062043937918172;
					}
					else {
						var54 = 0.037221700089556095;
					}
				}
			}
			else {
				if (input[2] > 9.500000000000002) {
					var54 = 0.02367536328229855;
				}
				else {
					var54 = 0.01620238098764383;
				}
			}
		}
		else {
			if (input[2] > 4.500000000000001) {
				if (input[2] > 6.500000000000001) {
					if (input[2] > 7.500000000000001) {
						var54 = 0.00801919435702368;
					}
					else {
						var54 = 0.0035500527695541814;
					}
				}
				else {
					if (input[2] > 5.500000000000001) {
						var54 = 0.00016442376720267795;
					}
					else {
						var54 = -0.0027710647058822022;
					}
				}
			}
			else {
				if (input[2] > 3.5000000000000004) {
					var54 = -0.019343795954060796;
				}
				else {
					var54 = -0.017096470159314318;
				}
			}
		}
	}
	else {
		var54 = -0.05585985000580146;
	}
	double var55;
	if (input[2] > 2.5000000000000004) {
		if (input[2] > 8.500000000000002) {
			if (input[2] > 10.500000000000002) {
				if (input[2] > 12.500000000000002) {
					if (input[2] > 13.500000000000002) {
						var55 = 0.06132315480553986;
					}
					else {
						var55 = 0.05355302511234895;
					}
				}
				else {
					if (input[2] > 11.500000000000002) {
						var55 = 0.039706131119380206;
					}
					else {
						var55 = 0.03625691370827271;
					}
				}
			}
			else {
				if (input[2] > 9.500000000000002) {
					var55 = 0.022743080250353712;
				}
				else {
					var55 = 0.015445915993590098;
				}
			}
		}
		else {
			if (input[2] > 4.500000000000001) {
				if (input[2] > 6.500000000000001) {
					if (input[2] > 7.500000000000001) {
						var55 = 0.007582023259286937;
					}
					else {
						var55 = 0.0033424723192703653;
					}
				}
				else {
					if (input[2] > 5.500000000000001) {
						var55 = 0.0001545527217517441;
					}
					else {
						var55 = -0.002609278138817284;
					}
				}
			}
			else {
				if (input[2] > 3.5000000000000004) {
					var55 = -0.018516999759039622;
				}
				else {
					var55 = -0.01632816474710206;
				}
			}
		}
	}
	else {
		var55 = -0.0555180078310689;
	}
	double var56;
	if (input[2] > 2.5000000000000004) {
		if (input[2] > 8.500000000000002) {
			if (input[2] > 10.500000000000002) {
				if (input[2] > 12.500000000000002) {
					if (input[2] > 13.500000000000002) {
						var56 = 0.06124444938445856;
					}
					else {
						var56 = 0.05305798935314657;
					}
				}
				else {
					if (input[2] > 11.500000000000002) {
						var56 = 0.03878229434610627;
					}
					else {
						var56 = 0.035287888262194284;
					}
				}
			}
			else {
				if (input[2] > 9.500000000000002) {
					var56 = 0.02183008296519936;
				}
				else {
					var56 = 0.01471564813940603;
				}
			}
		}
		else {
			if (input[2] > 4.500000000000001) {
				if (input[2] > 6.500000000000001) {
					if (input[2] > 7.500000000000001) {
						var56 = 0.007166517727143603;
					}
					else {
						var56 = 0.003146739604191399;
					}
				}
				else {
					if (input[2] > 5.500000000000001) {
						var56 = 0.00014527360076707017;
					}
					else {
						var56 = -0.002456695570709095;
					}
				}
			}
			else {
				if (input[2] > 3.5000000000000004) {
					var56 = -0.017712301064813123;
				}
				else {
					var56 = -0.015583663792495055;
				}
			}
		}
	}
	else {
		var56 = -0.05516491614015779;
	}
	double var57;
	if (input[2] > 2.5000000000000004) {
		if (input[2] > 8.500000000000002) {
			if (input[2] > 10.500000000000002) {
				if (input[2] > 12.500000000000002) {
					if (input[2] > 13.500000000000002) {
						var57 = 0.06117052230170561;
					}
					else {
						var57 = 0.052548961111139124;
					}
				}
				else {
					if (input[2] > 11.500000000000002) {
						var57 = 0.03784980985424881;
					}
					else {
						var57 = 0.03431582390624711;
					}
				}
			}
			else {
				if (input[2] > 9.500000000000002) {
					var57 = 0.020937237953084532;
				}
				else {
					var57 = 0.014011457872965314;
				}
			}
		}
		else {
			if (input[2] > 4.500000000000001) {
				if (input[2] > 6.500000000000001) {
					if (input[2] > 7.500000000000001) {
						var57 = 0.006771838128319114;
					}
					else {
						var57 = 0.002962219198533413;
					}
				}
				else {
					if (input[2] > 5.500000000000001) {
						var57 = 0.000136552878665948;
					}
					else {
						var57 = -0.002312822923062237;
					}
				}
			}
			else {
				if (input[2] > 3.5000000000000004) {
					var57 = -0.016930197691358815;
				}
				else {
					var57 = -0.014863159343438454;
				}
			}
		}
	}
	else {
		var57 = -0.05479982787448837;
	}
	double var58;
	if (input[2] > 2.5000000000000004) {
		if (input[2] > 8.500000000000002) {
			if (input[2] > 10.500000000000002) {
				if (input[2] > 12.500000000000002) {
					if (input[2] > 13.500000000000002) {
						var58 = 0.06110106906737934;
					}
					else {
						var58 = 0.0520252095780549;
					}
				}
				else {
					if (input[2] > 11.500000000000002) {
						var58 = 0.036909680055724134;
					}
					else {
						var58 = 0.03334199667708623;
					}
				}
			}
			else {
				if (input[2] > 9.500000000000002) {
					var58 = 0.02006533513329716;
				}
				else {
					var58 = 0.013333164385190137;
				}
			}
		}
		else {
			if (input[2] > 4.500000000000001) {
				if (input[2] > 6.500000000000001) {
					if (input[2] > 7.500000000000001) {
						var58 = 0.006397119935668594;
					}
					else {
						var58 = 0.0027882922000409;
					}
				}
				else {
					if (input[2] > 5.500000000000001) {
						var58 = 0.00012835682336949456;
					}
					else {
						var58 = -0.002177181543124314;
					}
				}
			}
			else {
				if (input[2] > 3.5000000000000004) {
					var58 = -0.01617108943113002;
				}
				else {
					var58 = -0.014166734221823086;
				}
			}
		}
	}
	else {
		var58 = -0.05442199608917848;
	}
	double var59;
	if (input[2] > 2.5000000000000004) {
		if (input[2] > 8.500000000000002) {
			if (input[2] > 10.500000000000002) {
				if (input[2] > 12.500000000000002) {
					if (input[2] > 13.500000000000002) {
						var59 = 0.06103580442838127;
					}
					else {
						var59 = 0.051486021601325045;
					}
				}
				else {
					if (input[2] > 11.500000000000002) {
						var59 = 0.03596298947565621;
					}
					else {
						var59 = 0.03236775347305518;
					}
				}
			}
			else {
				if (input[2] > 9.500000000000002) {
					var59 = 0.019215060306073613;
				}
				else {
					var59 = 0.01268051906312361;
				}
			}
		}
		else {
			if (input[2] > 4.500000000000001) {
				if (input[2] > 6.500000000000001) {
					if (input[2] > 7.500000000000001) {
						var59 = 0.006041550376891771;
					}
					else {
						var59 = 0.002624377519864129;
					}
				}
				else {
					if (input[2] > 5.500000000000001) {
						var59 = 0.00012065192771482229;
					}
					else {
						var59 = -0.0020493323837026843;
					}
				}
			}
			else {
				if (input[2] > 3.5000000000000004) {
					var59 = -0.015435282117318934;
				}
				else {
					var59 = -0.013494421361190749;
				}
			}
		}
	}
	else {
		var59 = -0.054030690471555134;
	}
	double var60;
	if (input[2] > 2.5000000000000004) {
		if (input[2] > 8.500000000000002) {
			if (input[2] > 10.500000000000002) {
				if (input[2] > 12.500000000000002) {
					if (input[2] > 13.500000000000002) {
						var60 = 0.06097447487600008;
					}
					else {
						var60 = 0.0509307498036861;
					}
				}
				else {
					if (input[2] > 11.500000000000002) {
						var60 = 0.03501094104507328;
					}
					else {
						var60 = 0.03139449443260843;
					}
				}
			}
			else {
				if (input[2] > 9.500000000000002) {
					var60 = 0.018387032673359782;
				}
				else {
					var60 = 0.012053204769324446;
				}
			}
		}
		else {
			if (input[2] > 4.500000000000001) {
				if (input[2] > 6.500000000000001) {
					if (input[2] > 7.500000000000001) {
						var60 = 0.005704315601635981;
					}
					else {
						var60 = 0.0024699128160376956;
					}
				}
				else {
					if (input[2] > 5.500000000000001) {
						var60 = 0.00011341284077295724;
					}
					else {
						var60 = -0.001928832311952584;
					}
				}
			}
			else {
				if (input[2] > 3.5000000000000004) {
					var60 = -0.014722990627151112;
				}
				else {
					var60 = -0.012846149858821642;
				}
			}
		}
	}
	else {
		var60 = -0.053625206503919894;
	}
	double var61;
	if (input[2] > 2.5000000000000004) {
		if (input[2] > 8.500000000000002) {
			if (input[2] > 10.500000000000002) {
				if (input[2] > 12.500000000000002) {
					if (input[2] > 13.500000000000002) {
						var61 = 0.06091683280604068;
					}
					else {
						var61 = 0.05035880594895923;
					}
				}
				else {
					if (input[2] > 11.500000000000002) {
						var61 = 0.03405480429280807;
					}
					else {
						var61 = 0.030423660092479876;
					}
				}
			}
			else {
				if (input[2] > 9.500000000000002) {
					var61 = 0.01758177432772042;
				}
				else {
					var61 = 0.011450853803593288;
				}
			}
		}
		else {
			if (input[2] > 4.500000000000001) {
				if (input[2] > 7.500000000000001) {
					var61 = 0.005384616007480312;
				}
				else {
					if (input[2] > 6.500000000000001) {
						var61 = 0.0023243893615894256;
					}
					else {
						if (input[2] > 5.500000000000001) {
							var61 = 0.00010660607347259364;
						}
						else {
							var61 = -0.00181529158675512;
						}
					}
				}
			}
			else {
				if (input[2] > 3.5000000000000004) {
					var61 = -0.014034337098189492;
				}
				else {
					var61 = -0.012221779881437893;
				}
			}
		}
	}
	else {
		var61 = -0.053204845549996924;
	}
	double var62;
	if (input[2] > 2.5000000000000004) {
		if (input[2] > 8.500000000000002) {
			if (input[2] > 10.500000000000002) {
				if (input[2] > 12.500000000000002) {
					if (input[2] > 13.500000000000002) {
						var62 = 0.06086265000237259;
					}
					else {
						var62 = 0.04976966866158165;
					}
				}
				else {
					if (input[2] > 11.500000000000002) {
						var62 = 0.03309593719128003;
					}
					else {
						var62 = 0.02945671627053233;
					}
				}
			}
			else {
				if (input[2] > 9.500000000000002) {
					var62 = 0.016799707383395375;
				}
				else {
					var62 = 0.010873047861839357;
				}
			}
		}
		else {
			if (input[2] > 4.500000000000001) {
				if (input[2] > 7.500000000000001) {
					var62 = 0.0050816759208163744;
				}
				else {
					if (input[2] > 6.500000000000001) {
						var62 = 0.0021872889158456943;
					}
					else {
						if (input[2] > 5.500000000000001) {
							var62 = 0.00010020629472121199;
						}
						else {
							var62 = -0.0017083082963015642;
						}
					}
				}
			}
			else {
				if (input[2] > 3.5000000000000004) {
					var62 = -0.013369376287348484;
				}
				else {
					var62 = -0.011621107434103408;
				}
			}
		}
	}
	else {
		var62 = -0.052768960995118734;
	}
	double var63;
	if (input[2] > 2.5000000000000004) {
		if (input[2] > 8.500000000000002) {
			if (input[2] > 10.500000000000002) {
				if (input[2] > 12.500000000000002) {
					if (input[2] > 13.500000000000002) {
						var63 = 0.06081170598494193;
					}
					else {
						var63 = 0.04916288419383216;
					}
				}
				else {
					if (input[2] > 11.500000000000002) {
						var63 = 0.03213574263689952;
					}
					else {
						var63 = 0.028495149909005334;
					}
				}
			}
			else {
				if (input[2] > 9.500000000000002) {
					var63 = 0.016041189752000924;
				}
				else {
					var63 = 0.010319311497674503;
				}
			}
		}
		else {
			if (input[2] > 4.500000000000001) {
				if (input[2] > 7.500000000000001) {
					var63 = 0.004794740855933799;
				}
				else {
					if (input[2] > 6.500000000000001) {
						var63 = 0.0020581482540352153;
					}
					else {
						if (input[2] > 5.500000000000001) {
							var63 = 0.0000941967405536844;
						}
						else {
							var63 = -0.0016075243546116876;
						}
					}
				}
			}
			else {
				if (input[2] > 3.5000000000000004) {
					var63 = -0.012728054693221299;
				}
				else {
					var63 = -0.011043857888872969;
				}
			}
		}
	}
	else {
		var63 = -0.052316888850728056;
	}
	double var64;
	if (input[2] > 2.5000000000000004) {
		if (input[2] > 8.500000000000002) {
			if (input[2] > 10.500000000000002) {
				if (input[2] > 12.500000000000002) {
					if (input[2] > 13.500000000000002) {
						var64 = 0.06076382259261586;
					}
					else {
						var64 = 0.04853807258024297;
					}
				}
				else {
					if (input[2] > 11.500000000000002) {
						var64 = 0.031175691243538077;
					}
					else {
						var64 = 0.02754043175707073;
					}
				}
			}
			else {
				if (input[2] > 9.500000000000002) {
					var64 = 0.015306463833669015;
				}
				else {
					var64 = 0.009789130231890405;
				}
			}
		}
		else {
			if (input[2] > 4.500000000000001) {
				if (input[2] > 7.500000000000001) {
					var64 = 0.004523073238196697;
				}
				else {
					if (input[2] > 6.500000000000001) {
						var64 = 0.001936519327548327;
					}
					else {
						if (input[2] > 5.500000000000001) {
							var64 = 0.00008853966536702061;
						}
						else {
							var64 = -0.0015125995101406377;
						}
					}
				}
			}
			else {
				if (input[2] > 3.5000000000000004) {
					var64 = -0.012110268127796314;
				}
				else {
					var64 = -0.010489703180408786;
				}
			}
		}
	}
	else {
		var64 = -0.051848039224425976;
	}
	double var65;
	if (input[2] > 2.5000000000000004) {
		if (input[2] > 8.500000000000002) {
			if (input[2] > 10.500000000000002) {
				if (input[2] > 12.500000000000002) {
					if (input[2] > 13.500000000000002) {
						var65 = 0.06071878836112305;
					}
					else {
						var65 = 0.04789492693990142;
					}
				}
				else {
					if (input[2] > 11.500000000000002) {
						var65 = 0.030217267252450677;
					}
					else {
						var65 = 0.02659403714200938;
					}
				}
			}
			else {
				if (input[2] > 9.500000000000002) {
					var65 = 0.014595688689202312;
				}
				else {
					var65 = 0.009281956392903636;
				}
			}
		}
		else {
			if (input[2] > 4.500000000000001) {
				if (input[2] > 7.500000000000001) {
					var65 = 0.004265961829060611;
				}
				else {
					if (input[2] > 6.500000000000001) {
						var65 = 0.0018219792030952657;
					}
					else {
						if (input[2] > 5.500000000000001) {
							var65 = 0.00008322667486992072;
						}
						else {
							var65 = -0.0014231845875528333;
						}
					}
				}
			}
			else {
				if (input[2] > 3.5000000000000004) {
					var65 = -0.011515818224189723;
				}
				else {
					var65 = -0.009958255811739734;
				}
			}
		}
	}
	else {
		var65 = -0.051361835738752804;
	}
	double var66;
	if (input[2] > 2.5000000000000004) {
		if (input[2] > 9.500000000000002) {
			if (input[2] > 10.500000000000002) {
				if (input[2] > 12.500000000000002) {
					if (input[2] > 13.500000000000002) {
						var66 = 0.060676446748298835;
					}
					else {
						var66 = 0.047233232678311796;
					}
				}
				else {
					if (input[2] > 11.500000000000002) {
						var66 = 0.02926199865748798;
					}
					else {
						var66 = 0.025657404612307068;
					}
				}
			}
			else {
				var66 = 0.013908937671233416;
			}
		}
		else {
			if (input[2] > 4.500000000000001) {
				if (input[2] > 8.500000000000002) {
					var66 = 0.008797211613491916;
				}
				else {
					if (input[2] > 7.500000000000001) {
						var66 = 0.0040227226697753405;
					}
					else {
						if (input[2] > 6.500000000000001) {
							var66 = 0.0017141264119209213;
						}
						else {
							if (input[2] > 5.500000000000001) {
								var66 = 0.00007823245570004083;
							}
							else {
								var66 = -0.0013389881589383047;
							}
						}
					}
				}
			}
			else {
				if (input[2] > 3.5000000000000004) {
					var66 = -0.01094445966122681;
				}
				else {
					var66 = -0.009449089014898137;
				}
			}
		}
	}
	else {
		var66 = -0.05085774185904666;
	}
	double var67;
	if (input[2] > 2.5000000000000004) {
		if (input[2] > 9.500000000000002) {
			if (input[2] > 10.500000000000002) {
				if (input[2] > 12.500000000000002) {
					if (input[2] > 13.500000000000002) {
						var67 = 0.06063662380347193;
					}
					else {
						var67 = 0.04655285412304796;
					}
				}
				else {
					if (input[2] > 11.500000000000002) {
						var67 = 0.02831141030693271;
					}
					else {
						var67 = 0.024731940043935068;
					}
				}
			}
			else {
				var67 = 0.013246199892483499;
			}
		}
		else {
			if (input[2] > 4.500000000000001) {
				if (input[2] > 8.500000000000002) {
					var67 = 0.008334286554483468;
				}
				else {
					if (input[2] > 7.500000000000001) {
						var67 = 0.0037926825148632656;
					}
					else {
						if (input[2] > 6.500000000000001) {
							var67 = 0.0016125759633112248;
						}
						else {
							if (input[2] > 5.500000000000001) {
								var67 = 0.00007354026976875631;
							}
							else {
								var67 = -0.0012597117660213214;
							}
						}
					}
				}
			}
			else {
				if (input[2] > 3.5000000000000004) {
					var67 = -0.010395877831471943;
				}
				else {
					var67 = -0.008961721748176676;
				}
			}
		}
	}
	else {
		var67 = -0.05033527749047235;
	}
	double var68;
	if (input[2] > 2.5000000000000004) {
		if (input[2] > 9.500000000000002) {
			if (input[2] > 10.500000000000002) {
				if (input[2] > 12.500000000000002) {
					if (input[2] > 13.500000000000002) {
						var68 = 0.06059916458028247;
					}
					else {
						var68 = 0.04585375460558729;
					}
				}
				else {
					if (input[2] > 11.500000000000002) {
						var68 = 0.027367031320479743;
					}
					else {
						var68 = 0.023819003124423317;
					}
				}
			}
			else {
				var68 = 0.012607406075950902;
			}
		}
		else {
			if (input[2] > 4.500000000000001) {
				if (input[2] > 8.500000000000002) {
					var68 = 0.007892548919840304;
				}
				else {
					if (input[2] > 7.500000000000001) {
						var68 = 0.0035752014057623765;
					}
					else {
						if (input[2] > 6.500000000000001) {
							var68 = 0.0015169711035036158;
						}
						else {
							if (input[2] > 5.500000000000001) {
								var68 = 0.00006912502515002368;
							}
							else {
								var68 = -0.0011850660072768352;
							}
						}
					}
				}
			}
			else {
				if (input[2] > 3.5000000000000004) {
					var68 = -0.009869696803100764;
				}
				else {
					var68 = -0.008495634518150602;
				}
			}
		}
	}
	else {
		var68 = -0.04979399448600068;
	}
	double var69;
	if (input[2] > 2.5000000000000004) {
		if (input[2] > 9.500000000000002) {
			if (input[2] > 10.500000000000002) {
				if (input[2] > 12.500000000000002) {
					if (input[2] > 13.500000000000002) {
						var69 = 0.06056393479574189;
					}
					else {
						var69 = 0.045135998071636665;
					}
				}
				else {
					if (input[2] > 11.500000000000002) {
						var69 = 0.026430376323620646;
					}
					else {
						var69 = 0.02291987225324482;
					}
				}
			}
			else {
				var69 = 0.011992383886799858;
			}
		}
		else {
			if (input[2] > 4.500000000000001) {
				if (input[2] > 8.500000000000002) {
					var69 = 0.007471348140159269;
				}
				else {
					if (input[2] > 7.500000000000001) {
						var69 = 0.0033696512868462976;
					}
					else {
						if (input[2] > 6.500000000000001) {
							var69 = 0.0014269722473443493;
						}
						else {
							if (input[2] > 5.500000000000001) {
								var69 = 0.0000649781311509934;
							}
							else {
								var69 = -0.0011147949053850815;
							}
						}
					}
				}
			}
			else {
				if (input[2] > 3.5000000000000004) {
					var69 = -0.009365511063106057;
				}
				else {
					var69 = -0.008050294216195722;
				}
			}
		}
	}
	else {
		var69 = -0.049233508559976484;
	}
	double var70;
	if (input[2] > 2.5000000000000004) {
		if (input[2] > 9.500000000000002) {
			if (input[2] > 10.500000000000002) {
				if (input[2] > 12.500000000000002) {
					if (input[2] > 13.500000000000002) {
						var70 = 0.06053079450490282;
					}
					else {
						var70 = 0.04439973092250227;
					}
				}
				else {
					if (input[2] > 11.500000000000002) {
						var70 = 0.025502917513790625;
					}
					else {
						var70 = 0.02203578451135371;
					}
				}
			}
			else {
				var70 = 0.011400913905900511;
			}
		}
		else {
			if (input[2] > 4.500000000000001) {
				if (input[2] > 8.500000000000002) {
					var70 = 0.0070700263332322535;
				}
				else {
					if (input[2] > 7.500000000000001) {
						var70 = 0.0031754432952517306;
					}
					else {
						if (input[2] > 6.500000000000001) {
							var70 = 0.0013422554370721897;
						}
						else {
							if (input[2] > 5.500000000000001) {
								var70 = 0.00006107450654050952;
							}
							else {
								var70 = -0.0010486371548558877;
							}
						}
					}
				}
			}
			else {
				if (input[2] > 3.5000000000000004) {
					var70 = -0.008882853684695559;
				}
				else {
					var70 = -0.007625137114469212;
				}
			}
		}
	}
	else {
		var70 = -0.04865349811132956;
	}
	double var71;
	if (input[2] > 2.5000000000000004) {
		if (input[2] > 9.500000000000002) {
			if (input[2] > 10.500000000000002) {
				if (input[2] > 12.500000000000002) {
					if (input[2] > 13.500000000000002) {
						var71 = 0.06049961850307565;
					}
					else {
						var71 = 0.04364524016857993;
					}
				}
				else {
					if (input[2] > 11.500000000000002) {
						var71 = 0.02458610118541671;
					}
					else {
						var71 = 0.021167880593643863;
					}
				}
			}
			else {
				var71 = 0.010832700121368758;
			}
		}
		else {
			if (input[2] > 4.500000000000001) {
				if (input[2] > 8.500000000000002) {
					var71 = 0.006687912544868933;
				}
				else {
					if (input[2] > 7.500000000000001) {
						var71 = 0.002992002177852714;
					}
					else {
						if (input[2] > 6.500000000000001) {
							var71 = 0.001262520123017109;
						}
						else {
							if (input[2] > 5.500000000000001) {
								var71 = 0.00005741005865079722;
							}
							else {
								var71 = -0.0009863726453560003;
							}
						}
					}
				}
			}
			else {
				if (input[2] > 3.5000000000000004) {
					var71 = -0.008421225450487482;
				}
				else {
					var71 = -0.0072195538143575155;
				}
			}
		}
	}
	else {
		var71 = -0.048053709463948595;
	}
	double var72;
	if (input[2] > 2.5000000000000004) {
		if (input[2] > 9.500000000000002) {
			if (input[2] > 10.500000000000002) {
				if (input[2] > 12.500000000000002) {
					if (input[2] > 13.500000000000002) {
						var72 = 0.0604702852767359;
					}
					else {
						var72 = 0.04287287242049961;
					}
				}
				else {
					if (input[2] > 11.500000000000002) {
						var72 = 0.023681313773954216;
					}
					else {
						var72 = 0.020317221560574188;
					}
				}
			}
			else {
				var72 = 0.010287401454260789;
			}
		}
		else {
			if (input[2] > 4.500000000000001) {
				if (input[2] > 8.500000000000002) {
					var72 = 0.006324331015974525;
				}
				else {
					if (input[2] > 7.500000000000001) {
						var72 = 0.002818781176309836;
					}
					else {
						if (input[2] > 6.500000000000001) {
							var72 = 0.0011874799830177822;
						}
						else {
							if (input[2] > 5.500000000000001) {
								var72 = 0.0000539678494378888;
							}
							else {
								var72 = -0.0009277605671278553;
							}
						}
					}
				}
			}
			else {
				if (input[2] > 3.5000000000000004) {
					var72 = -0.007980105168897822;
				}
				else {
					var72 = -0.00683295576672806;
				}
			}
		}
	}
	else {
		var72 = -0.04743395004545799;
	}
	double var73;
	if (input[2] > 2.5000000000000004) {
		if (input[2] > 9.500000000000002) {
			if (input[2] > 10.500000000000002) {
				if (input[2] > 12.500000000000002) {
					if (input[2] > 13.500000000000002) {
						var73 = 0.060442689917851795;
					}
					else {
						var73 = 0.04208311731689156;
					}
				}
				else {
					if (input[2] > 11.500000000000002) {
						var73 = 0.022789869303342657;
					}
					else {
						var73 = 0.019484779751051323;
					}
				}
			}
			else {
				var73 = 0.009764606108818092;
			}
		}
		else {
			if (input[2] > 4.500000000000001) {
				if (input[2] > 8.500000000000002) {
					var73 = 0.00597860202121759;
				}
				else {
					if (input[2] > 7.500000000000001) {
						var73 = 0.002655251941185345;
					}
					else {
						if (input[2] > 6.500000000000001) {
							var73 = 0.0011168567261929337;
						}
						else {
							if (input[2] > 5.500000000000001) {
								var73 = 0.00005072687258011607;
							}
							else {
								var73 = -0.0008726096481862106;
							}
						}
					}
				}
			}
			else {
				if (input[2] > 3.5000000000000004) {
					var73 = -0.007558931056228601;
				}
				else {
					var73 = -0.006464712180247246;
				}
			}
		}
	}
	else {
		var73 = -0.0467941100529307;
	}
	double var74;
	if (input[2] > 2.5000000000000004) {
		if (input[2] > 9.500000000000002) {
			if (input[2] > 10.500000000000002) {
				if (input[2] > 12.500000000000002) {
					if (input[2] > 13.500000000000002) {
						var74 = 0.060416722995443504;
					}
					else {
						var74 = 0.04127657299396499;
					}
				}
				else {
					if (input[2] > 11.500000000000002) {
						var74 = 0.021913036005670995;
					}
					else {
						var74 = 0.018671425300578005;
					}
				}
			}
			else {
				var74 = 0.009263886323696414;
			}
		}
		else {
			if (input[2] > 4.500000000000001) {
				if (input[2] > 8.500000000000002) {
					var74 = 0.0056500478895296505;
				}
				else {
					if (input[2] > 7.500000000000001) {
						var74 = 0.002500902034594996;
					}
					else {
						if (input[2] > 6.500000000000001) {
							var74 = 0.0010504003729729313;
						}
						else {
							if (input[2] > 5.500000000000001) {
								var74 = 0.00004768325933470861;
							}
							else {
								var74 = -0.0008207028050000793;
							}
						}
					}
				}
			}
			else {
				if (input[2] > 3.5000000000000004) {
					var74 = -0.007157113915303335;
				}
				else {
					var74 = -0.0061142048085956625;
				}
			}
		}
	}
	else {
		var74 = -0.04613415726873938;
	}
	double var75;
	if (input[2] > 2.5000000000000004) {
		if (input[2] > 9.500000000000002) {
			if (input[2] > 10.500000000000002) {
				if (input[2] > 12.500000000000002) {
					if (input[2] > 13.500000000000002) {
						var75 = 0.06039229675377126;
					}
					else {
						var75 = 0.0404539373368179;
					}
				}
				else {
					if (input[2] > 11.500000000000002) {
						var75 = 0.021051976998723347;
					}
					else {
						var75 = 0.017877942028480014;
					}
				}
			}
			else {
				var75 = 0.00878473963937607;
			}
		}
		else {
			if (input[2] > 4.500000000000001) {
				if (input[2] > 8.500000000000002) {
					var75 = 0.005338007080948829;
				}
				else {
					if (input[2] > 7.500000000000001) {
						var75 = 0.002355257953711064;
					}
					else {
						if (input[2] > 6.500000000000001) {
							var75 = 0.0009878683819431293;
						}
						else {
							if (input[2] > 5.500000000000001) {
								var75 = 0.00004482393447584254;
							}
							else {
								var75 = -0.000771860363631974;
							}
						}
					}
				}
			}
			else {
				if (input[2] > 3.5000000000000004) {
					var75 = -0.006774078446460452;
				}
				else {
					var75 = -0.005780800041928263;
				}
			}
		}
	}
	else {
		var75 = -0.045454158150508094;
	}
	double var76;
	if (input[2] > 2.5000000000000004) {
		if (input[2] > 9.500000000000002) {
			if (input[2] > 10.500000000000002) {
				if (input[2] > 12.500000000000002) {
					if (input[2] > 13.500000000000002) {
						var76 = 0.06036930725189958;
					}
					else {
						var76 = 0.039616012719294616;
					}
				}
				else {
					if (input[2] > 11.500000000000002) {
						var76 = 0.02020777962104136;
					}
					else {
						var76 = 0.01710500529516822;
					}
				}
			}
			else {
				var76 = 0.008326652026694258;
			}
		}
		else {
			if (input[2] > 4.500000000000001) {
				if (input[2] > 8.500000000000002) {
					var76 = 0.005041808472529787;
				}
				else {
					if (input[2] > 7.500000000000001) {
						var76 = 0.0022178580987440508;
					}
					else {
						if (input[2] > 6.500000000000001) {
							var76 = 0.0009290297886937152;
						}
						else {
							if (input[2] > 5.500000000000001) {
								var76 = 0.00004213239380523432;
							}
							else {
								var76 = -0.000725901243292793;
							}
						}
					}
				}
			}
			else {
				if (input[2] > 3.5000000000000004) {
					var76 = -0.006409205316335833;
				}
				else {
					var76 = -0.005463857840454292;
				}
			}
		}
	}
	else {
		var76 = -0.044754258569499814;
	}
	double var77;
	if (input[2] > 2.5000000000000004) {
		if (input[2] > 9.500000000000002) {
			if (input[2] > 10.500000000000002) {
				if (input[2] > 12.500000000000002) {
					if (input[2] > 13.500000000000002) {
						var77 = 0.060347670919987266;
					}
					else {
						var77 = 0.03876372569417904;
					}
				}
				else {
					if (input[2] > 11.500000000000002) {
						var77 = 0.019381437697371783;
					}
					else {
						var77 = 0.016353187002814473;
					}
				}
			}
			else {
				var77 = 0.007889080335444177;
			}
		}
		else {
			if (input[2] > 4.500000000000001) {
				if (input[2] > 8.500000000000002) {
					var77 = 0.004760793850916787;
				}
				else {
					if (input[2] > 7.500000000000001) {
						var77 = 0.0020882623756614135;
					}
					else {
						if (input[2] > 6.500000000000001) {
							var77 = 0.0008736750747566078;
						}
						else {
							if (input[2] > 5.500000000000001) {
								var77 = 0.00003960434450638796;
							}
							else {
								var77 = -0.0006826557941310193;
							}
						}
					}
				}
			}
			else {
				if (input[2] > 3.5000000000000004) {
					var77 = -0.006061872101742873;
				}
				else {
					var77 = -0.00516275197592659;
				}
			}
		}
	}
	else {
		var77 = -0.04403470576484726;
	}
	double var78;
	if (input[2] > 2.5000000000000004) {
		if (input[2] > 9.500000000000002) {
			if (input[2] > 10.500000000000002) {
				if (input[2] > 12.500000000000002) {
					if (input[2] > 13.500000000000002) {
						var78 = 0.06032731279095432;
					}
					else {
						var78 = 0.037898101290790055;
					}
				}
				else {
					if (input[2] > 11.500000000000002) {
						var78 = 0.018573848410676285;
					}
					else {
						var78 = 0.015622959071601371;
					}
				}
			}
			else {
				var78 = 0.007471434681878047;
			}
		}
		else {
			if (input[2] > 4.500000000000001) {
				if (input[2] > 8.500000000000002) {
					var78 = 0.004494316752740081;
				}
				else {
					if (input[2] > 7.500000000000001) {
						var78 = 0.001966044365766053;
					}
					else {
						if (input[2] > 6.500000000000001) {
							var78 = 0.0008215922488369706;
						}
						else {
							if (input[2] > 5.500000000000001) {
								var78 = 0.000037227354602941867;
							}
							else {
								var78 = -0.000641975219585227;
							}
						}
					}
				}
			}
			else {
				if (input[2] > 3.5000000000000004) {
					var78 = -0.005731472004601101;
				}
				else {
					var78 = -0.004876852902086112;
				}
			}
		}
	}
	else {
		var78 = -0.043295840997886186;
	}
	double var79;
	if (input[2] > 2.5000000000000004) {
		if (input[2] > 9.500000000000002) {
			if (input[2] > 10.500000000000002) {
				if (input[2] > 12.500000000000002) {
					if (input[2] > 13.500000000000002) {
						var79 = 0.06030814466383413;
					}
					else {
						var79 = 0.0370202553742603;
					}
				}
				else {
					if (input[2] > 11.500000000000002) {
						var79 = 0.017785808728129522;
					}
					else {
						var79 = 0.014914702659940056;
					}
				}
			}
			else {
				var79 = 0.007073134695985622;
			}
		}
		else {
			if (input[2] > 4.500000000000001) {
				if (input[2] > 8.500000000000002) {
					var79 = 0.0042417601660486425;
				}
				else {
					if (input[2] > 7.500000000000001) {
						var79 = 0.00185081514374882;
					}
					else {
						if (input[2] > 6.500000000000001) {
							var79 = 0.0007726011641513912;
						}
						else {
							if (input[2] > 5.500000000000001) {
								var79 = 0.000034992848298255506;
							}
							else {
								var79 = -0.0006037026588872414;
							}
						}
					}
				}
			}
			else {
				if (input[2] > 3.5000000000000004) {
					var79 = -0.005417363219305738;
				}
				else {
					var79 = -0.004605546914116988;
				}
			}
		}
	}
	else {
		var79 = -0.04253811653856708;
	}
	double var80;
	if (input[2] > 2.5000000000000004) {
		if (input[2] > 10.500000000000002) {
			if (input[2] > 12.500000000000002) {
				if (input[2] > 13.500000000000002) {
					var80 = 0.060290111432023175;
				}
				else {
					var80 = 0.03613141194750996;
				}
			}
			else {
				if (input[2] > 11.500000000000002) {
					var80 = 0.017018014650837614;
				}
				else {
					var80 = 0.014228697003682034;
				}
			}
		}
		else {
			if (input[2] > 8.500000000000002) {
				if (input[2] > 9.500000000000002) {
					var80 = 0.006693560348475842;
				}
				else {
					var80 = 0.004002490373455445;
				}
			}
			else {
				if (input[2] > 4.500000000000001) {
					if (input[2] > 7.500000000000001) {
						var80 = 0.001742193827327733;
					}
					else {
						if (input[2] > 6.500000000000001) {
							var80 = 0.0007265103011951489;
						}
						else {
							if (input[2] > 5.500000000000001) {
								var80 = 0.00003289675296746262;
							}
							else {
								var80 = -0.0005676954659481771;
							}
						}
					}
				}
				else {
					if (input[2] > 3.5000000000000004) {
						var80 = -0.0051189388084211885;
					}
					else {
						var80 = -0.004348221664774728;
					}
				}
			}
		}
	}
	else {
		var80 = -0.04176209707153573;
	}
	double var81;
	if (input[2] > 2.5000000000000004) {
		if (input[2] > 10.500000000000002) {
			if (input[2] > 12.500000000000002) {
				if (input[2] > 13.500000000000002) {
					var81 = 0.06027313517949733;
				}
				else {
					var81 = 0.0352328793444748;
				}
			}
			else {
				if (input[2] > 11.500000000000002) {
					var81 = 0.016271058931034654;
				}
				else {
					var81 = 0.013565124253445124;
				}
			}
		}
		else {
			if (input[2] > 8.500000000000002) {
				if (input[2] > 9.500000000000002) {
					var81 = 0.006332097348625501;
				}
				else {
					var81 = 0.003775918556783248;
				}
			}
			else {
				if (input[2] > 4.500000000000001) {
					if (input[2] > 7.500000000000001) {
						var81 = 0.0016398081932308451;
					}
					else {
						if (input[2] > 6.500000000000001) {
							var81 = 0.0006831598768767933;
						}
						else {
							if (input[2] > 5.500000000000001) {
								var81 = 0.00003091806943086556;
							}
							else {
								var81 = -0.0005338298714308143;
							}
						}
					}
				}
				else {
					if (input[2] > 3.5000000000000004) {
						var81 = -0.004835562252595088;
					}
					else {
						var81 = -0.0041042740340877576;
					}
				}
			}
		}
	}
	else {
		var81 = -0.04096842369876711;
	}
	double var82;
	if (input[2] > 2.5000000000000004) {
